9996 16
. -0.28850222 -0.0666521 0.046202235 0.103046246 0.0035144961 -0.016334089 0.05929754 0.14372607 0.014369449 -0.03825332 -0.049575698 -0.011404898 0.256026 0.047435064 0.10598244 -0.006037427
영화 -0.3111562 0.16064309 -0.19367562 -0.12080623 -0.042169817 -0.095549285 -0.021034613 0.3396533 -0.0021824683 -0.1501698 -0.10974548 0.11410194 -0.04401569 0.24616008 -0.007930382 0.036622424
다 -0.27406922 0.010364511 -0.11470883 -0.060467917 -0.16070493 0.07993725 -0.097015254 0.11922363 -0.015305585 -0.08002023 -0.16055055 -0.08073308 0.17079294 0.06506497 0.0053326096 0.09964855
고 -0.39372733 -0.19895099 -0.10270878 0.010404568 -0.10993047 0.080559805 0.19470593 0.14893575 0.0035738768 -0.15008245 0.19293618 0.25792906 0.11131902 0.22231095 0.018502705 0.0036756326
하 -0.0019190172 -0.022524446 -0.056788333 -0.012788639 0.11974741 -0.12843932 0.32699865 0.5011192 -0.2616443 -0.19749127 -0.17969163 0.19077893 0.11386958 -0.0035510105 0.21166822 -0.15415859
을 0.044834204 -0.16435501 -0.0682013 -0.0128808515 -0.048224032 -0.05006299 0.050194457 0.24481773 -0.0065625226 -0.042230904 0.0708352 0.14725761 0.107606046 -0.13563003 0.12760955 0.06698505
보 -0.014841101 -0.4748196 -0.36943215 -0.24383336 -0.35685518 -0.41267788 -0.17060637 0.3835655 -0.052304205 -0.08787458 0.055823084 -0.1875687 0.106787115 0.007771198 0.009968403 0.2715998
.. -0.19887564 -0.22054991 0.2593202 0.021660337 -0.037778426 -0.11177634 0.19809051 0.12981793 -0.010474333 0.120146565 0.015631212 -0.05378688 0.12611611 0.036892638 0.14911851 -0.28248048
게 -0.22205387 -0.36842412 -0.17630015 -0.18840176 -0.15887831 -0.16784468 0.07560064 0.016459547 -0.35689482 -0.14474969 0.3433086 -0.20665762 0.19419496 0.31379786 0.007832234 -0.05457366
, -0.05806188 -0.1379402 0.017007574 0.22642426 0.086128354 -0.016240131 0.12073533 0.36219162 -0.06451693 0.011657625 0.02371897 0.06195325 0.12844522 -0.064194374 0.046189204 -0.12199533
! -0.24326952 -0.36202115 -0.30695033 -0.07710663 -0.09835623 -0.040070124 -0.45990464 0.16100833 0.076594904 -0.10006484 -0.116610244 -0.061347622 0.023368292 0.46737263 -0.25410596 -0.038873658
지 0.4351282 -0.39232242 0.22971751 -0.17837922 -0.019085567 -0.22813497 -0.027962731 0.30847144 -0.30070668 0.21647699 0.16963996 0.14514552 0.18356311 -0.15840752 -0.17259847 0.020482114
있 0.1286352 -0.48738676 -0.010455253 0.23296854 -0.4054834 -0.19494508 -0.4232351 -0.14358513 -0.121057495 -0.21610641 0.023562413 -0.28567302 0.27836674 -0.0663795 -0.24605115 0.41942647
없 0.97979677 0.3476126 0.3147111 -0.08481682 0.49121323 0.14814533 0.386684 0.08839069 -0.27408767 0.31320217 -0.08021011 -0.02373625 -0.36996266 -0.52736026 0.3548481 -0.15881042
? 0.23366968 -0.11598349 0.24001671 -0.2963523 0.22419009 -0.055257194 0.23214369 0.37504908 -0.363676 0.21394114 0.051381957 -0.028039213 0.18300223 -0.22950815 0.36594516 -0.44742197
좋 0.058382448 -0.45603576 -0.34859383 0.23509976 -0.4797292 -0.35431048 -0.16674457 0.010260124 0.19307439 -0.2696382 0.020272821 0.22051908 -0.21651196 0.5955546 -0.37359917 0.63263214
나 -0.0026570885 -0.37586126 0.23886384 -0.20194629 -0.36329317 -0.13724275 0.09071483 0.13221602 -0.24939403 -0.059801985 0.25711402 -0.11450127 0.19660565 -0.053264126 -0.21032341 0.06939169
었 -0.14369848 -0.29084635 -0.264235 -0.21955702 -0.59659547 -0.28341746 -0.0070868684 0.29056925 0.06795191 -0.21240105 0.06616589 0.2034227 0.21383819 0.09203764 -0.13865323 0.15608577
만 -0.22675003 0.20478599 0.15931042 -0.29412115 0.22975142 0.37121794 0.45137745 0.02692485 -0.1206649 0.071261495 -0.21983272 -0.26786426 0.6897195 -0.1834209 -0.12050239 -0.11894609
는데 0.24599287 0.1303573 0.09187217 0.03675676 -0.28492156 -0.22461197 -0.08103619 -0.12562922 -0.28357318 -0.19346727 0.23254211 0.18057118 -0.33570752 -0.14758535 -0.1515591 0.1924557
너무 -0.0511024 0.08883427 -0.0737163 0.18274958 0.07845507 -0.12903094 0.27160674 0.2726066 -0.08449145 0.042644247 0.023749312 0.074897386 -0.53120416 0.07970113 0.28962797 -0.0034338378
봤 -0.103968225 -0.12819257 -0.16313419 0.14261958 -0.13422975 -0.1618604 -0.1752114 0.050587904 0.064375505 -0.01626369 0.024072912 -0.078281015 -0.13821019 0.7704716 -0.035223916 -0.27200752
적 0.012887185 -0.32642925 0.085787684 0.14085259 -0.2545187 0.06879709 0.10537822 0.2537178 0.09441129 -0.17304957 -0.114466675 -0.07979802 0.18736029 -0.061006855 -0.16501883 0.1522771
안 0.18088782 0.48835006 0.6120433 -0.4723106 0.27581477 0.16498236 0.029119475 -0.13076685 -0.107473046 0.39148763 -0.20470874 -0.35069993 0.54352725 -0.70120794 0.43081143 -0.29537168
정말 0.10406853 -0.23932518 -0.22014007 0.4291997 -0.24924786 -0.22602685 -0.06176379 0.29340848 -0.34009513 -0.29551697 0.18749598 -0.23194207 0.08667275 0.23103805 -0.035352785 -0.09533038
로 0.05195598 -0.014518771 0.013232311 -0.3138699 0.02004591 -0.13415554 0.0135521935 0.52681357 -0.17581557 -0.12187832 0.06345583 -0.08538236 0.32252404 -0.010808195 0.28897515 -0.3144566
음 -0.29864785 -0.011105826 -0.27985662 0.360777 0.19744174 0.107002534 -0.12937891 0.13890597 0.120133445 -0.17162867 -0.23050238 0.030095316 -0.0024437034 0.19213788 0.12236759 -0.122205384
것 0.037228942 -0.3250084 0.06695111 0.1739844 0.08547228 -0.18582633 0.02245115 0.18990572 -0.21264373 0.081355095 0.10395123 0.15612128 0.26067892 0.056323476 -0.11199114 -0.06990862
아 -0.15837377 -0.1294982 0.18620868 -0.05422349 0.0443683 -0.19659394 0.037973434 -0.027563963 0.02015489 0.20397483 0.07566861 -0.00048446492 0.27083167 -0.041350473 -1.4175661e-05 0.0007118711
네요 -0.2902481 -0.061166815 -0.3456315 0.35368118 0.04256572 0.115845226 -0.16732512 0.34240183 0.21055916 -0.06663913 -0.36275 -0.101165734 0.28575322 0.2406718 0.00070814166 -0.06780118
재밌 -0.27238652 -0.19547299 -0.46652752 0.18587813 -0.7186042 -0.8190709 -0.61821485 -0.3849682 0.29598254 -0.11804896 0.4708455 0.29298514 -0.4562777 1.2453468 -0.22569604 0.436795
어 0.056376014 -0.004495447 -0.017767463 0.09946368 -0.033496417 -0.036314312 -0.0119355 0.42479566 -0.03815884 -0.24675047 0.0018562048 -0.11442337 0.21843281 -0.070952155 0.10512756 -0.07787454
점 -0.56466395 0.42525876 -0.22563441 -0.022981437 0.81471527 0.2747161 0.38549292 0.31374407 -0.23076262 -0.004607423 0.03465782 -0.10590593 -0.29374322 0.027992403 0.50404406 0.04815777
같 0.37367886 -0.02848982 0.08513715 -0.040432774 0.003862682 0.09242291 -0.012304066 0.21158041 0.09141296 0.09309761 -0.07783479 0.08688982 0.18743798 -0.054193933 -0.107134916 0.09606112
지만 0.7350592 0.10975509 0.26467222 0.06192717 -0.11418816 -0.39261872 0.05633807 -0.16688667 -0.628843 -0.14510106 0.67515033 0.022625016 -0.8048809 -0.29019114 -0.10897275 -0.053459983
진짜 -0.13598737 -0.035892185 0.015402449 -0.021081537 -0.096677214 -0.14540108 0.028338512 0.080167465 -0.15467332 -0.19243471 0.23785779 0.0056996658 -0.16514666 0.10815832 -0.105249375 -0.09721146
했 -0.39198527 -0.32109958 0.064059205 -0.1209606 0.05983012 -0.33761668 0.24433666 0.4879162 0.01717837 0.09577543 -0.20967947 -0.09111379 0.61746514 0.13528582 0.17978539 -0.36124453
에서 0.28179264 -0.11414346 -0.011779799 0.031621337 -0.29894373 -0.19999228 -0.19593811 0.14564428 -0.27642998 -0.23995902 0.06152328 -0.119061165 0.1028323 0.004833428 -0.25562724 0.14807776
기 -0.17989232 -0.17904814 0.38241056 -0.13063113 -0.16899124 0.33319986 0.033824183 0.33032006 0.16391765 0.10419539 -0.07687785 -0.10791427 0.18070482 -0.10232499 0.018289587 0.11916081
네 -0.37980035 0.14195107 0.20080489 0.03826446 0.18722835 -0.04603956 0.063226305 0.097404405 -0.1450752 -0.14796576 -0.21117076 -0.111421525 0.250914 -0.098083675 -0.04586053 -0.10045495
않 0.89978194 -0.06098478 0.37523064 0.047910437 -0.111085944 -0.41363448 -0.043043796 -0.28619295 -0.7051525 0.04203558 0.50767493 -0.18210135 -0.7396508 -0.5014939 0.22075546 -0.115773745
거 -0.16565502 -0.26160893 -0.06742917 0.10495525 0.23784178 -0.44422385 0.2068912 0.44309485 -0.15098543 0.09094599 -0.20054807 -0.06045592 0.59432936 0.1370177 0.13766284 -0.09980226
았 -0.109012954 0.018328309 -0.026884899 -0.13208881 -0.25297678 0.021764325 -0.15204263 0.1440014 -0.2205991 -0.13910204 0.28990036 -0.3144297 0.2597769 0.11250624 0.08752988 -0.16532601
수 -0.14612596 -0.039967358 -0.17429847 0.12194023 -0.2625774 -0.17042382 -0.18017064 -0.1912023 0.25381908 -0.049403906 0.21849018 0.32733238 0.15491521 0.08221687 -0.22889906 0.32616547
되 -0.191978 0.07791456 -0.16070983 0.14626569 -0.15679467 -0.036031514 -0.050862294 0.06560375 -0.06746586 -0.2835993 -0.020398028 0.007983542 0.07035942 0.3442594 -0.25608873 0.1381038
면 -0.09221738 -0.31736857 0.19993283 0.007087492 0.27890483 -0.3446554 -0.13690607 -0.058113523 -0.344235 0.28621456 0.23220366 -0.31211722 0.40497488 -0.34572372 0.20096536 -0.22959356
ㅋㅋ -0.05381781 -0.12260171 -0.26378983 0.14394009 -0.100232676 -0.28327924 -0.19121593 0.25600323 -0.11134529 -0.15311848 -0.11216165 -0.008120328 0.1513949 0.39053074 -0.13927867 0.1992798
말 -0.28881043 0.069050625 -0.017058438 -0.11970318 -0.10887398 -0.18740098 -0.017225929 0.08657083 0.06128322 0.24822757 0.19283654 0.07564504 0.10081503 -0.1131083 0.0026348438 -0.15884747
연기 -0.34917203 -0.45654503 -0.14435579 0.38870117 -0.022136236 -0.26551723 0.059675217 0.14034644 0.12654993 0.009883584 0.11359947 0.20105065 -0.23402473 0.21626705 0.11349549 -0.012083023
인 0.088198766 0.19419503 -0.1323281 0.50415313 0.1798072 0.047063306 0.12521942 0.10668051 -0.05536798 -0.04894273 -0.1821264 0.020846583 0.15527079 0.049574967 -0.09135179 0.020520573
최고 0.069470435 -0.011733218 -0.5093626 0.60954815 -0.5252649 -0.37489215 -0.8143912 -0.6361452 -0.11326229 -0.5312906 0.5372668 0.23144314 -0.21956417 0.74344826 -0.61089563 0.5267219
주 0.43551505 -0.30588427 0.11736359 0.16270168 0.102490984 -0.03998185 0.2490048 0.226043 -0.2574871 0.13510214 0.092247516 0.31407177 -0.01554361 0.3397912 -0.019341087 -0.15037175
내 0.129541 -0.2856622 0.13470945 -0.028830398 -0.109965265 0.02753909 0.031889744 -0.02893521 0.10431697 0.1652215 0.16617796 -0.12168723 0.032622382 0.11580742 -0.21855028 -0.35114247
~ -0.41954827 -0.24557169 -0.16750701 0.19212641 -0.11707512 -0.370784 -0.123952255 0.2008927 -0.19244835 -0.05699807 -0.38202393 -0.06312774 0.062396057 0.40968713 -0.17033571 0.14530405
평점 0.17677544 -0.055701356 0.06645217 -0.16778885 0.044015568 -0.38055077 -0.4322887 0.13553602 0.187162 0.14988734 -0.4551791 0.119145006 0.088508055 -0.0012060723 -0.022443162 0.5104507
이런 -0.18424752 -0.18701215 0.23094524 0.09349066 0.15311427 -0.29543343 0.042839684 0.13894776 -0.27869052 0.038527787 -0.039508108 -0.07545664 -0.3619907 -0.08354677 -0.11135915 0.040487755
어요 -0.45749113 -0.08329098 -0.4979538 0.32709196 -0.07418335 -0.10751119 -0.30669492 0.16359058 0.33705732 0.10893343 -0.20066532 0.03223897 -0.20555231 0.49771148 0.23908016 0.36129192
던 -0.11675213 -0.3551758 -0.24420689 -0.13876122 -0.39094275 0.12920569 0.0011742774 0.29229766 -0.08084061 -0.1525998 0.19586949 -0.15417472 0.18411042 0.07844004 0.0002457996 0.23064126
할 -0.035474762 -0.19540508 0.08573712 0.1471086 0.07149941 -0.5327884 -0.023038233 -0.0007347756 -0.12950537 0.1278496 0.059651352 0.062271997 0.15797329 -0.2809443 0.008485424 -0.077842884
왜 -0.19607352 0.5201878 0.24854392 -0.23747434 0.31075218 0.11878843 0.27673084 -0.014576919 0.2034404 0.2563966 -0.20901203 0.16377716 0.08986678 -0.18737724 0.05155883 0.14940621
1 0.30030072 0.12576503 0.5465738 -0.49656737 0.26804644 0.13412653 -0.0026345903 0.27680168 -0.20265676 0.45995608 -0.27116415 -0.24163021 0.045676477 -0.46103534 -0.004327408 -0.13050365
겠 0.28950617 -0.012022519 0.24201748 -0.11407203 0.19153498 0.25381932 0.4345748 0.40234435 -0.2675969 0.2509961 0.09124324 -0.053590283 -0.033627227 0.011568398 0.15103635 -0.39800966
해 -0.012474557 -0.09117223 -0.20937619 -0.04396442 -0.1900717 0.092801645 0.024748899 -0.017736249 0.13412681 -0.07093583 0.024190014 -0.046304554 0.6112689 0.04964716 -0.0847142 -0.17312664
스토리 -0.24306214 0.27976808 -0.0017328276 -0.0017660466 0.14917089 0.09340458 0.110572584 0.05763003 -0.2919098 -0.05108129 0.08134992 -0.27431 -0.26014 -0.055053752 0.280639 0.16363123
습니다 -0.36098778 0.21792328 -0.7409009 0.09916169 -0.0438106 -0.16889474 -0.03534059 0.2965014 0.33449522 -0.20090665 0.012280182 0.14699054 0.22243714 0.0028620982 0.03248073 -0.05611679
ㅋㅋㅋ -0.14860749 -0.16991723 -0.059366312 0.16613157 0.15579307 -0.025122974 -0.22782817 0.15375605 0.35437995 0.11272873 -0.13683552 -0.030757368 0.08273981 0.09035307 0.16878648 -0.051726878
... -0.074149325 -0.19922657 0.14596573 0.08358696 0.077914104 -0.1652734 0.074651726 0.20838362 0.20061632 0.099930614 0.049735326 0.08557679 0.11711582 -0.15310346 0.1309255 -0.028970124
드라마 -0.14024831 0.37559322 -0.11008204 0.06589704 0.06284069 0.23689616 0.21334794 0.26800987 0.47586924 -0.24141659 -0.21545973 0.55050206 0.068791024 0.10849605 -0.045357343 0.06915772
생각 -0.31248626 0.027129117 -0.11012158 0.23933837 -0.28399608 -0.13271533 -0.11902172 -0.1766407 0.13864689 0.030662363 0.2444561 0.23760177 0.35539767 -0.104578175 -0.032063663 0.2380039
아니 0.29760528 0.254959 0.73992795 -0.04430778 -0.22877406 -0.5109642 -0.051840566 -0.44747528 -0.43372744 0.5636567 -0.09316321 -0.34398413 0.021571169 -0.49638733 0.26746127 -0.57379264
더 0.111547194 -0.1606126 -0.18244474 -0.18726736 -0.113492 -0.045618806 0.15626964 0.12969732 0.1597992 -0.2859202 0.046908617 0.021127203 0.81110686 -0.32587847 0.04775933 0.008627949
그 -0.21063854 -0.14416887 -0.124441 -0.1564999 -0.013807356 -0.20282291 -0.3352869 0.07157364 0.069773614 -0.2573461 0.26885828 -0.04267378 -0.0050607417 0.29213768 -0.2353388 0.109224774
싶 -0.25826824 -0.6886349 -0.047573265 0.12698393 0.3646948 -0.029216923 0.36624265 0.26583228 0.029662471 -0.07815532 -0.40303546 0.3106385 0.46267506 0.27833292 -0.15966228 0.19755234
사람 0.46731335 -0.4370857 -0.030441165 -0.18931176 0.11265879 -0.40215087 -0.21466398 -0.07473984 -0.02452876 -0.16401796 0.3185606 0.13808183 0.36660916 -0.2819392 -0.13977936 -0.1990072
듯 -0.023389935 -0.13263074 0.24322194 0.20629041 0.10740266 -0.16462536 -0.08018143 0.21861063 -0.256106 -0.16712686 -0.053242113 -0.010320773 0.21096112 0.01610734 -0.14016306 -0.02639771
감동 0.20786875 -0.29325667 -0.40270776 0.23980808 -0.6216925 -0.5343471 -0.48654023 -0.12194299 -0.20638339 -0.49456775 0.66650826 -0.06594965 -0.5693201 0.9036589 -0.35872692 0.37400234
때 -0.082277216 -0.0014652004 -0.30838966 0.22853273 0.008006645 -0.24986188 -0.21182239 0.26309475 0.13721052 -0.216212 0.026796455 0.14832847 0.23590109 -0.067542724 -0.099199474 0.12512411
함 -0.044053923 -0.011932614 -0.08213469 -0.034566842 -0.026128838 -0.121850155 0.10361193 0.41144684 -0.2062955 -0.06737126 0.043207936 -0.09023738 0.1579009 0.08523444 0.1968169 -0.24874236
배우 0.20234504 -0.31203505 0.20949169 -0.18725121 0.329333 -0.39136687 -0.09345897 0.34559834 -0.40524873 0.055883437 -0.008723028 -0.04091303 0.051144682 0.25676495 -0.31195256 -0.36106128
본 0.18705998 -0.10991599 -0.17172809 -0.021266062 -0.07127738 -0.5594723 -0.12681703 0.47388065 -0.48374233 -0.27071565 0.072420284 -0.1632319 -0.34065202 0.3498062 -0.12761572 -0.010770113
까지 0.07575085 -0.3006198 0.001531987 0.061706547 -0.057762686 -0.23890767 0.10957326 0.4167976 -0.16970633 -0.09736982 -0.21863256 0.071223006 -0.021758556 0.41398355 -0.14099821 0.030107968
뭐 0.22574656 0.11587317 0.4002826 -0.19727848 0.026003197 0.10031927 0.28712443 0.26818052 -0.034883827 0.4302787 -0.005872453 -0.2076113 -0.023826087 -0.17471175 0.4535692 -0.11749382
볼 -0.31663132 -0.44406733 -0.20954083 0.6458625 -0.20783381 -0.5967843 0.17945735 -0.23330615 0.07490058 -0.007636269 0.04289406 0.31137568 0.16990519 0.22596629 -0.28886896 0.3504034
알 0.3442068 -0.032366455 -0.09364399 -0.27415472 0.06788809 0.16551746 0.02560404 -0.01631817 -0.18587674 0.031075887 0.08453525 -0.15493172 0.24316896 -0.16635711 -0.12564582 -0.3266288
만들 -0.20246723 -0.21967694 0.23585945 0.28270006 -0.047182888 0.22871128 0.21221648 0.6257189 -0.15555544 -0.026608158 0.020717697 -0.092738315 -0.090191476 0.4016789 0.27841958 0.08504508
내용 -0.28325 -0.07605517 0.089620166 -0.10196604 0.080767125 0.0026688955 0.3694562 0.045497723 -0.37127972 0.3282402 0.01701238 -0.2461736 -0.49317488 0.11357448 0.15543118 -0.17358467
감독 0.345675 -0.086977564 0.055005595 0.26673087 0.29092357 0.43586993 0.24115051 0.22983149 -0.22321072 0.19770354 -0.29638553 -0.114582606 -0.04015034 0.116941504 0.022430299 -0.06936987
보다 0.5979338 0.32086852 0.1472222 0.36278558 0.006808895 -0.32721505 -0.25661296 0.2525672 -0.30736426 -0.08608145 0.111001894 -0.119672954 -0.47950715 -0.15406835 0.042138897 0.099620275
라 0.035273593 -0.2777653 0.06328484 0.06941147 0.07425336 -0.15974167 -0.07295728 0.15740551 -0.02835708 -0.17297204 -0.0029649457 -0.047610175 0.23735212 -0.08745707 -0.054243334 0.12253196
재미 -0.23888353 -0.32328057 0.26196235 0.059919648 -0.08923313 -0.13222376 0.06762118 -0.062204175 -0.55455065 -0.021564104 0.5142472 -0.00746393 -0.5898565 0.817449 -0.01708457 -0.23229669
그냥 0.13383956 0.32800984 0.3839854 -0.04703882 0.123907164 0.033609383 0.339275 0.16795179 -0.50889033 0.056908984 0.0873742 -0.13472396 -0.4072509 0.19879869 -0.064789556 -0.5623735
지루 0.22488932 0.8616295 0.49772343 -0.5472198 0.31035423 0.2964006 0.6424685 0.1169849 -0.99925154 0.4080842 -0.044787508 -0.6050113 -0.12566574 -0.5990891 0.33131197 -0.65530396
시간 0.04646769 0.34390634 0.51392525 0.03214544 0.31802678 -0.25125042 0.30267024 0.087008886 -0.37434363 0.2881094 -0.15579845 -0.14736266 -0.036009964 -0.3074548 -0.12949231 -0.5430177
재미있 -0.42979112 -0.5158289 -0.10416733 0.5831697 -0.525943 -0.5065578 -0.23949325 -0.47404426 0.16729352 -0.00026787387 0.41018015 -0.036270734 -0.3853229 1.0747814 -0.50408155 0.16179667
중 -0.34070295 0.08485999 -0.30195785 0.38987032 -0.3401672 -0.25962815 0.034401443 -0.07675169 0.16866566 -0.20914309 0.47408673 -0.019024312 -0.29458514 -0.010259814 0.19740325 0.36081183
년 -0.095019884 0.037680324 -0.27622533 -0.11858477 -0.11204613 0.14173664 0.06929456 0.025926827 0.12529413 -0.16006707 0.12585789 0.19339958 0.4025041 0.02101825 -0.11055094 0.19698739
잼 -0.1256597 0.11287938 -0.38299263 0.25292736 -0.42056262 -0.39177665 -0.16816995 -0.18668745 -0.011306484 -0.4581295 0.4394496 0.06638499 -0.9784973 1.2647821 -0.10483543 0.23530509
10 0.13246813 -0.84584117 -0.46397445 1.070992 -0.66250885 -0.9969989 -0.42812926 0.34743252 -0.30939445 -0.41391268 0.2842432 0.08390817 -0.3090658 0.64583415 -0.13650225 0.55330884
재미없 0.60934967 0.88892007 0.6156182 -0.62357754 0.92388433 0.37604472 0.3844378 0.33700395 -0.54242945 0.6894537 -0.7024156 -0.82249427 -0.30502424 -0.7911137 0.36288998 -0.6510984
였 -0.3203415 -0.041373685 -0.32880884 -0.0052097556 -0.18953255 -0.119777344 -0.20311743 -0.017790897 0.14519548 -0.27936977 0.0067475336 0.033568107 0.52571076 0.0553632 -0.18117675 0.113244995
쓰레기 0.7725712 0.7211853 0.98435986 -0.707082 0.63626075 0.46382037 0.64734125 0.07583677 -0.9074932 0.8013626 -0.38845477 -0.7455517 -0.24008125 -0.9659117 0.36761656 -0.7224031
사랑 -0.04443741 -0.2604646 -0.42069212 0.25725427 -0.7504578 -0.6377104 -0.25602928 -0.1727185 0.067571655 -0.36102474 0.41933802 0.13866663 -0.27350244 0.50418293 -0.28898868 0.493785
못 0.51120037 0.32748872 0.50184846 -0.27901888 0.3641444 0.022305632 0.06109782 -0.10199244 -0.20066458 0.2964956 -0.038838554 -0.4909535 0.17776698 -0.87884724 0.4549642 -0.30144563
냐 0.6007616 -0.043991566 0.66819996 -0.13992302 -0.010024299 -0.057167903 0.2865029 0.4634923 -0.5084258 0.6414248 -0.10427672 -0.33164713 -0.14707346 -0.044971403 0.455458 -0.46795568
서 0.13438477 -0.24397177 0.0229269 -0.1799342 -0.301653 -0.10566517 -0.12981719 -0.020792928 -0.008840763 0.020353524 -0.19478288 -0.108827785 0.6794913 0.42103523 -0.43281087 -0.062476415
2 0.012588716 0.21016456 0.24018314 0.056558546 0.31015393 -0.055261534 0.33436894 -0.09222087 -0.33476678 0.13652901 0.06696594 -0.08176905 0.093082085 -0.4415327 0.003740677 -0.18352933
라고 0.20016885 0.22131021 0.5503725 -0.19341736 0.23843428 -0.39604574 0.19822393 0.34070373 -0.23957527 0.23793626 -0.06244535 -0.1891065 0.12150594 -0.1957134 0.08873024 -0.12862766
야 -0.1123681 -0.057674725 0.16564822 0.2937407 0.45922992 -0.09274989 -0.07861557 0.17235781 -0.10389458 -0.18847156 -0.0028723879 -0.081459545 0.341707 -0.052540164 0.22273177 -0.29008618
니 0.13436814 -0.10453564 -0.121274605 -0.16726176 -0.69605744 -0.11029246 0.08135302 0.25201735 0.1260345 0.15835163 -0.019505363 -0.20869945 0.24297772 -0.20968598 0.031162454 0.13707705
면서 -0.28725463 0.15744682 0.021177452 -0.25971103 -0.3244292 -0.3241042 0.063592814 0.13989091 0.017003236 -0.22068979 0.14434873 0.1639918 -0.09476541 0.15710334 0.00136132 -0.14444491
번 0.032935448 -0.33457848 -0.19452009 0.4857841 -0.040536597 0.107511066 -0.11843303 -0.282738 0.25082764 -0.17752245 0.1519195 0.37833312 0.058354456 -0.11443664 -0.106851436 0.39755973
다시 -0.22665283 -0.24799974 0.013881447 -0.029027894 -0.49231005 -0.39746687 -0.21163572 -0.11892491 0.1874239 -0.04956785 0.55009085 0.32263982 -0.29823032 -0.022112245 -0.22137721 0.40651786
나오 -0.044227615 0.09566215 0.04513535 0.369955 0.3126355 0.13634361 0.2096699 -0.0514484 0.07745376 0.14169778 -0.017552683 0.21475163 -0.1748699 0.1954973 0.12553585 -0.17987871
작품 -0.351736 -0.41700396 -0.19641308 0.18057719 -0.29733318 -0.118993804 0.013483954 -0.039000288 0.19358683 -0.17100838 0.24246131 0.15400499 -0.009256967 0.02987576 -0.13863388 0.18217501
이거 -0.15458068 -0.087158404 0.17029315 -0.077687085 0.106674194 -0.21985398 0.016345216 0.13535596 0.23188335 0.006758722 -0.02127707 0.24367651 -0.13534746 0.12308897 -0.05237445 0.30886862
하나 0.22830988 -0.36396247 0.12894888 0.052198116 0.12349626 0.114705205 -0.065633655 0.42087814 -0.13009997 -0.16211551 0.3155711 -0.12659076 -0.10145871 0.022875095 0.040666632 -0.12710218
줄 0.16788648 -0.25358945 -0.036508925 0.39235535 -0.007054679 -0.18845814 0.045558088 0.3375618 -0.22417504 0.09948735 0.19909197 -0.39084712 0.09165222 0.10126444 0.3859861 -0.1888757
해서 -0.24966115 -0.16187133 0.42544594 -0.15063772 -0.14477283 -0.28790933 0.09285554 0.27857047 -0.3051238 -0.1662071 0.05400513 0.0954812 -0.1866201 0.10304043 -0.35652918 -0.07800347
개 -0.0558694 0.03765602 -0.23617111 -0.044119757 -0.10964008 0.004685848 0.16064057 0.25449198 0.12861204 -0.28808936 -0.109972075 -0.061406337 0.24753559 -0.21063021 0.20608442 0.035138223
남 -0.36410472 0.074202165 0.15967761 0.0815421 -0.08274903 0.269951 0.52624327 0.05921034 -0.33549538 0.0138277775 0.20106141 0.03956111 -0.10554873 0.26644877 -0.25624892 -0.11683662
정도 -0.04080931 0.011729799 -0.021630935 -0.054341655 -0.25392243 0.0791861 0.14967006 0.2111077 -0.0065985457 -0.14607063 0.24621022 -0.32733232 0.26647174 -0.24730909 0.47296247 -0.34970778
마지막 -0.4849922 -0.31487772 -0.2278874 -0.08485307 0.008875694 0.26077765 -0.25339693 -0.31485403 0.28754666 0.21392302 0.43666437 0.057820268 0.23109643 0.2081677 0.5648198 -0.06598362
끝 0.036588527 -0.0798761 -0.14266923 -0.23293605 0.36806 0.37634096 0.02172021 0.35694516 -0.19100504 0.04843285 -0.023940098 -0.17978245 0.18670315 0.11968976 0.20055063 -0.4315688
이건 0.29450426 0.010623495 0.88342917 0.095965974 0.2528171 0.41219527 0.22712275 -0.2395287 -0.3125237 0.044266377 0.4706371 0.03285591 -0.24927853 0.1418014 -0.1578432 -0.78743887
임 -0.8373005 -0.36849642 -0.108611636 0.16459134 -0.12985738 0.060692802 0.057231892 0.067638345 0.21366598 -0.29393792 0.10115812 0.18768944 0.07434417 0.12168222 -0.062162112 0.23690858
액션 -0.15394089 -0.35213718 -0.02854777 -0.28597942 -0.5365353 -0.13466989 -0.22188501 -0.050985593 -0.33854985 0.017798265 0.34297597 -0.11451679 -0.04456698 0.51204216 0.10765772 0.041865036
ㅋ -0.008357828 -0.23048083 -0.31445518 0.28174618 0.33171564 -0.11167672 -0.19473682 0.15921593 0.27398208 -0.019451536 -0.51760006 0.18730454 -0.037366975 0.31448883 -0.029200198 0.10563662
3 0.1398 0.14721002 0.22269297 -0.147236 -0.09346333 0.45207056 0.09815476 0.08785284 -0.080787614 0.19866732 -0.1865319 -0.15275358 0.060010064 7.5385324e-05 0.10878512 -0.034288473
입니다 -0.6877571 -1.0508604 -0.1771752 0.06436448 -0.065972425 -0.078889124 -0.2419389 -0.30806616 0.14206424 -0.019235382 -0.026953071 0.09986739 0.24254265 0.95055467 -0.1207665 -0.08943452
기대 0.31126505 0.06985359 -0.08582713 0.64416176 -0.13350788 -0.28535798 0.11767341 0.2897862 -0.3491073 -0.054515626 -0.14093114 -0.22170791 -0.06369886 0.43640995 -0.11295807 -0.008463362
건 0.02872672 -0.2762577 0.29482943 -0.39435 -0.41792434 0.29975322 0.124624 0.06887372 -0.2381061 0.3915538 0.24433482 -0.24954593 0.18549323 0.23549446 0.03173696 -0.43303025
완전 -0.12866881 0.04972849 0.5616337 0.24273446 -0.05316899 0.03707436 0.1655652 0.052508697 -0.39354718 -0.16867094 0.46804264 0.12909749 -0.5081213 0.07430001 -0.18107417 -0.15341479
라는 -0.016754342 -0.32806307 0.16409664 -0.33444637 0.1443629 -0.34374136 0.24455944 0.16860971 -0.06768824 0.26025325 -0.01076619 -0.17976436 0.629267 -0.07063266 0.0775138 -0.58547544
분 0.86699206 -0.15603729 0.11119848 -0.23339587 -0.21458577 0.0070642633 -0.121221304 0.22452402 -0.38336232 0.1754244 0.14577135 -0.3181948 -0.2533521 -0.36056912 0.11151694 0.05100324
다는 0.49079645 -0.50525165 0.026806055 -0.14378367 -0.057098873 -0.088944666 -0.121431634 0.18299726 -0.03378903 -0.12662093 0.4787109 0.22866464 0.1334924 -0.20963092 -0.21902518 0.15496011
참 0.056019194 0.042930014 0.12107317 0.12917075 0.25387895 0.22048841 0.25290307 0.34727612 -0.3131312 -0.085090086 0.08385474 0.16696168 -0.26059738 0.1866394 0.19440557 -0.14981693
많 0.14241822 0.41326058 0.044268023 0.22573996 -0.32752395 0.09273895 -0.3528169 -0.057008334 -0.20430167 -0.4277765 0.048476283 -0.08374795 0.14751974 0.025756884 -0.22049245 0.25156784
아깝 -0.3881378 0.9185427 0.1732684 -0.47868916 0.52399105 0.72389823 0.0927375 0.24543433 -0.42375237 0.12245182 -0.5649303 -0.6865265 -0.34945711 -0.11419572 0.51605374 -0.13568863
처음 -0.2513553 0.1424725 -0.36244226 -0.08175895 -0.011091226 0.5359959 0.15231219 -0.11591184 0.106065154 -0.20881532 0.07488173 -0.27785996 0.53155667 -0.18791069 0.22201557 -0.070610195
장면 0.08715552 -0.23013283 0.024479691 0.17337978 -0.056724787 -0.2009109 -0.24549648 0.26602986 -0.15979221 -0.012766095 0.033865646 -0.23765297 -0.05943029 0.54830354 0.41995996 -0.030985478
대 0.016287941 -0.13096382 -0.03794977 -0.47757038 -0.23912658 -0.18507594 0.074074924 0.034699492 -0.3455444 0.10043087 0.37815714 -0.12349989 0.16504964 -0.1505942 -0.016307563 -0.41584778
다가 0.11634191 -0.04986957 0.34767672 -0.026657669 0.005741528 -0.13697638 0.21890265 0.26468366 -0.760957 0.40263134 0.25235927 -0.18872099 -0.53533536 -0.06499423 0.5024122 -0.4020034
으면 0.033410322 -0.0055675046 0.2754121 0.07134837 -0.087173596 -0.25802994 0.00507045 0.06977776 -0.14296696 0.008068844 -0.08363196 -0.35332155 0.50744617 -0.20146221 0.058650494 -0.28857478
지금 -0.21454258 -0.09870471 -0.11496007 0.37186795 -0.26911002 -0.39959088 -0.06000225 -0.26249704 0.28482884 -0.15846753 0.004691501 0.28759623 0.17556126 0.021608291 -0.08127028 0.17689553
모르 -0.11925153 0.06462853 0.11364016 0.26265025 -0.124653384 -0.5850873 0.04862486 -0.103550784 -0.3840474 -0.17732234 0.1855094 -0.09408674 -0.38820404 -0.024754856 0.1296379 -0.18875477
이렇게 0.065541364 -0.04252733 0.33043927 0.253999 0.16296892 -0.12762618 0.099988334 -0.1984206 -0.17268644 0.077528596 0.057058197 0.025188792 -0.15217558 0.19622566 0.040738367 -0.59204364
' -0.17043729 -0.33032268 -0.012848179 -0.3731596 -0.15813833 0.16913904 -0.020613547 0.06631592 -0.09257923 -0.20913306 0.29603043 -0.1101947 0.2892136 -0.2008355 0.016458174 -0.13830073
편 -0.09283909 -0.29528308 -0.31184602 -0.18319213 -0.5122542 -0.03883315 -0.041409075 -0.20304136 0.21500179 -0.2834722 0.3223219 0.027712079 0.15310352 0.017529506 -0.29157808 0.3318313
일 0.09893186 -0.19437876 0.014894444 -0.1313214 -0.044025123 -0.6288737 -0.19018073 0.14558873 0.015364239 -0.13079447 0.07751955 0.03289526 0.109512135 -0.10095272 -0.075128354 -0.067848295
이게 -0.02088996 -0.25393975 0.4623339 -0.37758628 0.35440192 -0.2275198 0.013000151 0.11503698 -0.001919473 0.27337688 -0.050553024 0.22294812 0.25303125 0.11235586 0.028235786 -0.38807523
돈 -0.0996584 0.45723042 0.72094804 -0.5585187 0.62454236 0.43056682 0.67233944 0.3267123 -0.21920648 0.606667 -0.71718365 -0.58571625 -0.19905253 -0.3805994 0.2910133 -0.3794138
최악 0.9108587 1.3731266 0.84045875 -0.8214386 0.7909521 0.98429877 0.92436576 0.34418327 -0.7777944 0.94679904 -0.56281 -0.6832636 -1.2528971 -0.97009283 0.32468414 -0.8988127
성 -0.12545194 0.14873642 -0.017502008 0.030704608 0.07517956 0.060484413 0.37408656 0.37636796 0.056473307 -0.108735956 -0.06561058 0.19299862 -0.01160615 -0.0025629932 0.05807702 -0.14560692
느낌 -0.6753907 0.24067153 0.2553122 -0.04290806 -0.103169866 0.2699258 0.101464584 0.012797868 -0.028735356 -0.118206866 0.006823939 0.05465286 0.12386409 0.039534684 0.0063852887 0.00977563
시 0.057357002 -0.6137263 0.14763604 -0.0343129 -0.05752285 0.20924264 -0.15363291 -0.1882487 0.08588363 0.15460937 0.24190651 0.021633603 0.5852741 -0.059613768 0.07240091 0.06804765
이야기 0.10929345 0.33035085 -0.064282686 0.0028817556 -0.1750511 -0.18716452 0.116036326 0.19324431 0.123867996 -0.2710517 -0.26485345 0.13691552 -0.17727654 0.24206059 -0.3687139 0.06320142
별로 0.20162703 0.77907187 0.71166 -0.5085486 0.95513123 0.38120198 0.43013543 0.062974244 -0.43859908 0.65101254 -0.5453196 -0.5180682 -0.12787852 -0.5572436 0.32272592 -0.58271575
된 0.15926906 0.06268847 -0.16729008 -0.14736372 0.17670842 -0.04835336 0.06820642 0.29950356 -0.14228094 -0.17550634 -0.11325048 0.20490286 0.009823332 0.024821024 -0.22268403 0.259223
봐도 -0.19262566 0.58093804 -0.65941674 0.13232729 -0.48012844 -0.1721256 0.24128358 -0.12326852 0.04090192 -0.1670699 0.3706351 0.2618943 -0.37260866 0.680145 0.13511181 -0.114064015
님 0.7184786 -0.8340079 -0.25622842 0.19048178 -0.051553205 -0.3878935 -0.1319842 0.15177521 -0.04672728 -0.24245869 -0.13913779 0.18175212 0.39113322 0.15143934 -0.33883458 0.3157047
어서 -0.19846094 0.18712747 -0.16188921 -0.14464384 0.18504106 -0.1655619 0.12466241 0.35402074 -0.040463373 -0.3104622 -0.13363646 -0.12751682 0.08370659 -0.03046293 0.19600387 -0.08926421
애 0.081569985 -0.027794031 0.38318595 -0.1996668 0.61514807 0.13084024 -0.060503207 0.13336775 0.26967564 0.41857558 -0.10509362 0.22956754 0.29337114 -0.073765896 0.26891953 -0.46153814
전 -0.1812606 -0.11086374 0.41416174 0.44026455 -0.028320514 -0.14398338 -0.11046042 0.4962629 -0.35654047 -0.20763351 -0.087538786 -0.47748625 0.17806205 0.23515986 -0.04919767 0.12587197
ㅠㅠ -0.090262786 -0.2535297 -0.21802922 0.101511896 0.21084021 -0.353338 -0.39120144 0.05150199 0.15515493 -0.42574692 -0.15669875 0.2367627 0.20543674 0.24209136 -0.15750371 0.068643525
넘 0.07386751 -0.092159696 0.01618545 0.28332838 -0.0055208546 -0.3058535 -0.024796378 0.23336402 -0.32985693 -0.13402851 0.37743917 -0.10715903 -0.3710313 0.30093214 0.21579075 -0.3006883
인데 -0.18446384 0.31237543 0.23690762 -0.21877915 -0.09187883 0.087094024 0.14938433 -0.105492644 -0.4648546 -0.24326128 0.30457985 -0.07412697 -0.067281686 0.1185284 -0.24057797 0.022492032
다고 0.7530118 -0.06255653 0.0055632503 -0.37265915 0.15021992 -0.43568158 -0.17177308 0.13282417 -0.6507272 0.08660745 0.6764567 0.11475714 -0.42821908 -0.022552084 -0.44057226 -0.35769504
이해 0.29728138 -0.18527293 0.11225504 -0.050215013 -0.082544155 -0.1836226 -0.029250972 -0.045553345 -0.2517273 0.079096936 0.3224764 0.113056384 0.037312295 -0.18636493 0.21561322 0.14516091
명작 0.038028274 -0.05003834 -0.8256238 0.52688795 -0.54432046 -0.56168276 -0.9747151 -0.60425705 0.5567462 -0.5038725 0.17163992 0.15923387 -0.8820995 0.7381025 -0.6425795 0.7068461
^^ 0.4508582 -0.14982215 -0.5177195 0.40539435 -0.013921301 0.079441264 -0.3983809 -0.14969042 0.025864884 -0.27279487 0.36925972 0.22840768 -0.32746136 0.19644563 -0.22298795 0.1733896
그리고 0.12506728 -0.3497601 -0.422117 0.014426259 -0.22024168 0.28747714 0.06859238 0.10275999 0.053284086 -0.4217272 0.37568724 0.41019043 -0.17662296 0.14531806 -0.37074107 0.1846944
역시 -0.06137981 -0.39304158 -0.10738776 0.42326117 -0.09038763 -0.11334137 -0.07046537 -0.12565994 -0.03242184 -0.30047914 0.6384004 0.34143454 0.09761059 0.08386442 0.001435359 0.10897341
난 -0.030296816 -0.05897483 -0.034413036 -0.024338135 -0.5113114 -0.17571284 -0.14879863 0.120602176 -0.1767094 -0.35842633 0.32619688 0.07544817 -0.20746553 0.057419263 -0.30903348 0.18133381
여자 0.04517631 -0.18842386 0.17517765 -0.34425145 0.4550852 -0.1456664 0.3146308 0.34738892 0.23480931 0.47743085 -0.2969302 -0.013763666 0.19614427 -0.051618077 0.3250717 -0.034613885
또 -0.11152998 0.40336642 -0.6868799 -0.4010459 -0.26945925 -0.021987695 -0.1403012 0.06515228 0.31595656 0.12888679 0.07137742 0.41611722 -0.0068652276 0.23790185 0.21495509 0.5129615
이상 -0.10075782 0.3871454 0.11467075 0.30623877 0.071522705 -0.013538113 0.15179417 -0.05947437 -0.25332674 -0.21388598 -0.081975356 -0.0523446 -0.23506944 -0.22686563 -0.06368601 -0.09133154
걸 -0.3507124 -0.24858363 0.35358807 0.09300684 0.19162497 -0.61789364 -0.047042876 0.32275528 -0.19916078 0.18456608 -0.011526242 -0.32560357 0.22142446 0.08577621 0.24416058 -0.20512773
한국 -0.23936585 -0.019774666 0.21705078 0.08143415 0.0661745 0.021661082 -0.12275308 -0.0025737984 0.38617507 -0.270205 -0.2248546 0.08659664 0.29180175 -0.018240208 -0.26503733 0.4440128
에게 0.4171259 0.051772356 -0.22049205 -0.08979862 -0.079158284 -0.25695604 -0.14352919 0.1869604 0.17417619 0.16700117 -0.101341896 0.030693071 0.05650585 -0.14947686 -0.19050236 0.26419866
는지 0.49936405 -0.4807609 0.22990738 -0.2595241 0.123321705 0.09457867 0.4466221 0.4770542 0.13409667 0.43146366 -0.24962495 -0.1389846 0.3867759 -0.34365284 0.5166791 -0.21787764
많이 0.21259171 -0.08772297 0.06664594 0.23732948 -0.06837953 -0.15646237 0.2611901 0.21594937 0.031986006 -0.059345245 -0.16305159 0.005120341 -0.037696213 -0.081011064 0.033715986 0.13369015
부터 -0.057135724 -0.23208481 0.0425136 -0.02940491 -0.15301976 0.15164638 0.14520857 -0.032208927 -0.48792484 0.070642166 0.2256541 -0.36921948 -0.21738094 0.0056771087 0.32243153 -0.049965043
만든 -0.75910205 -0.09190627 0.2162726 -0.0072770435 -0.61197907 -0.1006893 -0.055410065 0.35441592 -0.43276724 -0.058135115 -0.017826729 -0.29468763 -0.28408042 0.61013496 -0.00038492528 0.046501443
주인공 -0.06990951 -0.027642518 -0.12891878 -0.03331602 0.078690566 0.15498917 0.47733733 0.2525591 -0.09284057 0.0707984 -0.1279283 -0.2199804 0.17154478 -0.28025576 -0.038884684 -0.33636245
받 -0.004883076 -0.5464124 0.014922828 -0.12076623 -0.25344345 -0.14819533 -0.14199017 0.06858945 -0.25832647 -0.09064066 0.17734581 0.003952032 0.17801897 0.20469174 0.05783231 0.31783912
합니다 0.19527863 -0.046880808 -0.19924271 0.25962842 -0.09440832 -0.10092222 -0.029217519 0.82131314 -0.35196632 -0.40610313 -0.20515487 0.11134478 -0.22588326 0.30575302 -0.19403166 0.07331396
!! 0.02120079 -0.5146101 0.05688436 -0.43823868 -0.3279925 0.3391443 0.30055934 0.12737505 -0.18962702 -0.05830655 0.07313636 0.13745481 -0.26637462 0.13904852 -0.40798348 0.09429271
두 0.36899436 -0.16599841 -0.009217268 0.4177482 -0.1923872 -0.10548629 -0.26311967 0.29656178 -0.46050683 -0.24244569 -0.014534092 -0.38633752 0.05907621 0.34256542 -0.24180052 0.15222986
우리 0.12249251 -0.07078417 -0.46685857 0.23184808 -0.45862728 -0.29360202 -0.49901795 -0.285078 0.23488064 -0.65805525 0.6742505 0.09857254 0.20972931 0.025063809 -0.29822642 0.35128167
살 0.28300017 -0.1682192 -0.24592547 -0.032819904 0.3508023 -0.28824475 -0.28003898 0.096643195 -0.15717374 -0.09473565 -0.02405602 0.033642676 0.038791865 0.1498595 -0.14927694 0.086094685
괜찮 -0.55725473 -0.47368658 -0.5957134 0.51139313 -0.6899033 0.051808294 -0.31556696 -0.1692362 -0.019731766 -0.38328344 -0.06499673 0.18455344 -0.33014336 0.61329705 -0.5895235 0.7848212
길 -0.29994878 0.36632407 -0.21646358 -0.019660788 0.08793063 -0.23931584 -0.12659793 -0.040330917 0.21450956 -0.13196221 -0.2174181 -0.042169504 0.52857715 0.021434275 -0.17884184 -0.05786742
엔 0.19418085 -0.14401394 -0.017607385 -0.06414095 -0.11903587 0.04209047 0.18413478 0.2240108 -0.1913693 0.19510597 0.12839438 -0.15314624 0.38409263 0.0369307 -0.03664051 0.23055898
기억 0.0962167 -0.4118508 -0.16397129 0.1482505 0.14524937 -0.33048025 0.025184402 -0.2748152 0.093642876 -0.17778067 0.313225 0.6401764 -0.23960285 0.19645701 -0.39099544 0.26987028
한다 0.21931033 0.10307167 0.0247374 0.31867635 -0.02583031 -0.004964548 0.08271058 0.030500736 0.13831079 -0.15255983 0.12814724 0.09527902 0.4116631 -0.13846143 -0.117866 0.15495153
ㅎㅎ 0.35366362 -0.5862184 -0.53986377 -0.12589452 0.33716127 -0.86797893 -0.8245544 0.1847603 0.8680617 -0.054831278 -0.40330493 0.5683441 -0.26720357 0.3178125 -0.017222192 0.60768086
연출 -0.33226538 0.19145933 -0.08346932 0.02815954 -0.4271906 0.08989548 0.14050525 0.38206622 -0.70537657 -0.30448768 0.029173011 -0.77229506 0.024263384 0.39433578 0.21913402 -0.04871233
때문 0.47332004 -0.0079195425 0.051744945 0.10486853 0.04981443 -0.25288197 -0.022966016 0.35480303 -0.030925583 -0.15571825 -0.3693298 0.09332026 0.0041875155 -0.053863157 -0.16220032 0.2319622
이나 -0.04157988 0.24575315 0.3468397 0.14117682 0.18933065 0.20241374 0.19313864 0.23923022 -0.07041617 0.16901499 -0.09994151 -0.60841966 -0.11877824 -0.3349291 0.13592154 0.20892847
요 -0.44235742 -0.7487351 -0.025757737 0.25485748 -0.022405135 -0.08013413 0.05129432 -0.0052584186 0.5101612 -0.09575385 -0.21226391 0.35718423 0.20837791 0.3848989 -0.21938051 0.365513
저 -0.046136476 0.23526858 -0.011300659 0.06290083 -0.22536016 -0.17247118 0.17853 0.22239952 -0.26784673 -0.09584299 0.143773 -0.060837623 -0.13265245 0.23229386 -0.04467224 0.20002316
재 -0.062795386 -0.15755486 0.07807152 0.40100756 -0.45913896 -0.19915077 0.067288384 -0.07990003 -0.42041332 -0.26302 0.569222 -0.13987328 -0.35346657 0.62598395 -0.14224267 0.24497291
꼭 -0.08046274 -0.34836626 -0.69414437 0.3105161 -0.3851457 -0.68546194 -0.46135548 -0.26345137 0.15703452 -0.17257348 0.5256695 0.40622795 -0.26857314 0.5450508 -0.19025213 -0.08008398
랑 0.12760991 -0.09516125 0.07364525 0.43294007 0.30638862 0.11334695 -0.051208757 0.29245204 -0.07057136 -0.20543244 0.12819473 0.108542986 0.07328926 -0.014073808 0.3042407 -0.02781767
며 -0.2628883 -0.106826685 -0.12037811 0.006206645 -0.14813323 0.041066006 -0.1341254 -0.26256958 -0.12972632 -0.23599932 0.2780623 0.22819531 0.09883129 0.3166625 -0.35665005 -0.024051342
현실 0.24500035 -0.083841205 -0.17981613 0.2402091 -0.51416326 -0.45645446 -0.17266981 0.058174334 0.20545223 -0.5581974 0.2967962 0.2581659 -0.43777186 -0.02982898 -0.13739596 0.37787208
ㅡㅡ 0.2748337 0.3494684 0.122907445 -0.45137292 0.1411761 0.31400847 0.80507296 0.51875895 -0.18096864 0.28171378 -0.45403346 -0.6026588 0.10112983 -0.48274 0.57693595 -0.26007396
긴 0.22426648 0.10169186 0.40201405 -0.44937652 -0.22749689 -0.26335287 -0.35833678 0.26648897 -0.554792 0.124039344 0.12514423 -0.56435347 0.043965284 -0.14925848 -0.018882724 0.15213278
무슨 -0.07762078 0.4728721 0.5631379 -0.38214695 0.37668207 0.40934068 0.35195667 0.031093178 -0.265214 0.5179906 -0.09045097 -0.43345118 -0.14325514 0.2001263 0.5362224 -0.6998613
마음 0.033499673 0.114277825 -0.20293237 0.42654642 -0.5432517 -0.5285959 -0.5026912 -0.40329686 -0.057143863 -0.3123365 0.7517506 0.257818 -0.43653104 0.05853376 -0.12356001 0.2618737
내내 -0.34909758 0.0769656 0.1249979 0.40717158 0.06274393 0.0784542 -0.09617902 -0.052210648 -0.052881606 -0.14875871 0.1343646 0.17544077 -0.22666441 0.08277054 0.045010343 -0.046461873
굿 0.14566037 -0.013553015 -0.45996523 0.39481035 -0.83962834 -0.5474606 -0.67347926 -0.3128189 -0.053381585 -0.29578578 0.23702928 0.16052268 -0.1838331 0.5711151 -0.38768137 0.79443556
결말 -0.11278814 0.29912263 -0.37067154 -0.24753726 -0.27799898 0.5641104 -0.1858188 0.045093473 -0.015204646 -0.22071108 -0.43664387 -0.47017848 0.032036852 0.06926249 -0.3919684 0.093627885
죽 -0.30576992 0.15394649 0.43499267 0.25100225 0.13173553 0.31856707 0.26165348 -0.13422479 0.09534595 0.03865931 -0.11789841 0.06495368 0.21156633 -0.3851383 0.020763032 0.27794924
남자 -0.37332556 -0.0885341 0.37740597 0.076852255 -0.03814286 -0.22145723 0.14479244 -0.0993515 -0.13424549 0.117906295 0.11507672 -0.022994265 0.0825482 0.1996857 0.116871715 0.23025136
세요 -0.18640256 -0.07669466 -0.07143031 -0.3244529 0.08299978 -0.17576796 -0.07350881 0.13735874 -0.49854484 -0.15757962 0.0801827 -0.07957423 0.2188725 0.02537779 -0.016094672 -0.26562428
전개 0.30399054 0.102912016 -0.10744218 -0.40476158 -0.026032872 0.21307366 0.6129732 0.46683863 -0.19043592 0.26101956 -0.12688556 -0.10109864 -0.19208045 0.1107637 0.09949907 -0.32243893
속 -0.3326372 0.1467289 -0.38507497 0.16343544 -0.22223006 0.19902468 0.04411332 0.07464143 -0.042844906 -0.32410207 0.07317545 -0.23445232 -0.23317604 0.07102133 0.18691085 0.023329249
소재 0.3791377 -0.34179842 0.32518965 0.2591519 0.33696187 -0.14592731 0.10871368 0.2034427 -0.27904785 0.22853708 0.16732246 -0.055710826 -0.34023568 -0.18991843 0.37598437 -0.5687242
짱 -0.3527249 -0.36322293 -0.5509756 0.19780754 -0.77201074 -0.2852428 -0.34366465 -0.48807395 0.0623055 -0.7076698 0.1774029 0.027009157 -0.082590215 0.4540031 -0.7563442 0.55171025
인생 0.48844236 -0.35691068 -0.07316736 0.008907721 0.040153034 0.2487763 -0.47110298 -0.48995453 -0.32442707 -0.5805558 0.6087651 0.16595434 0.23640218 0.20965375 -0.82826287 0.23137684
공포 0.14526515 -0.22078332 -0.025551574 -0.29983604 0.19736303 0.0253975 0.032500885 0.6660694 -0.11517387 0.17947507 -0.22323169 -0.051147494 0.013698163 0.21577972 0.17708242 -0.015384794
다른 0.2860167 -0.38820198 0.05243296 0.047370747 0.18196122 0.10359232 -0.11833701 -0.2872044 0.44703412 0.0119980825 0.17719068 0.12755953 0.56785524 -0.46324733 -0.18685414 0.2871868
아서 -0.01894435 0.40663874 -0.06374682 0.06009163 0.10817733 0.049897447 0.18646306 0.16122997 -0.19754775 0.016622009 -0.03144726 -0.01494667 -0.38072997 0.050642796 0.31522024 -0.030239692
씨 -0.115719475 0.24877469 -0.060021695 -0.0007716478 0.024229163 0.16007672 0.3929421 0.2302583 0.006921642 -0.09295564 -0.21557981 -0.08127541 0.6481684 0.23906021 -0.05906186 0.17608403
~~ -0.26988116 0.0774896 -0.13412447 0.23857342 -0.27785715 -0.14248863 -0.10070754 0.06555241 -0.10655954 -0.33091897 0.19804625 0.105151914 -0.23272537 0.50602376 -0.18044302 0.10664945
짜증 0.4960361 0.6566517 1.1049546 -0.45210546 0.9178645 0.3110457 0.39917848 -0.28272843 -0.5852672 1.0384063 -0.36811677 -0.62569404 -0.2318572 -0.9297329 0.54571795 -0.92361635
은데 0.018577535 0.30043143 0.22680822 -0.1701526 -0.10715508 0.109628245 -0.14273171 -0.47103843 -0.16077155 -0.16680679 0.111001804 0.04956967 -0.30278164 0.25778136 -0.61198264 -0.096079364
아요 -0.15709871 0.51028794 -0.13122652 0.53026956 -0.26966095 -0.08778249 -0.21529377 -0.22997727 0.59901714 -0.37697735 -0.112005934 0.036295403 0.37941897 -0.025696134 -0.13271536 0.0124979215
뿐 0.0044964184 0.28043 0.5940093 -0.37762395 0.37399095 0.11956665 0.34199205 0.3459474 -0.26366872 0.24656355 -0.20724547 -0.05740337 -0.20624778 0.055237897 -0.08850745 -0.6913095
필요 -0.29802325 -0.62590367 -0.44305763 -0.2223537 -0.103441544 -0.59919024 -0.9531137 -0.6198001 0.3694585 0.02075627 0.93677294 0.31528062 -0.117967084 -0.48096463 0.085808314 -0.057555348
별 0.35918716 0.14729902 0.056729566 -0.16424939 -0.13477804 -0.2524202 -0.029395156 0.39950785 -0.70839673 -0.030420534 0.18567894 -0.065434575 -0.72286093 0.103239 0.18344204 0.30232382
유치 0.013904733 0.4189065 0.25205743 -0.097607285 0.28222993 0.429335 0.41382718 -0.05976489 -0.7002094 0.27852637 0.008978216 -0.65043104 -0.5211947 -0.39365003 0.44105726 -0.33279237
가장 0.10069965 -0.37387246 0.11809858 -0.1537742 -0.42166397 0.057409413 -0.119237535 0.17382106 -0.46886867 -0.25605738 0.35258776 -0.24229488 -0.10832467 -0.015133916 -0.051969133 -0.17777656
음악 0.10828862 -0.21207222 -0.09143389 -0.021579247 -0.14605689 -0.5996568 -0.49331993 -0.23635134 -0.24610241 -0.27524987 0.03470325 0.16738483 0.1049176 0.012092258 -0.71572554 0.12688883
) 0.31595665 0.09050271 0.20489717 0.07261665 -0.15595946 -0.25934803 0.103438646 0.09442075 0.010928371 -0.09979016 0.2677944 0.23609209 -0.096108295 0.015189189 -0.2251211 0.11917428
일본 0.10519751 -0.03576922 0.16293083 0.12750143 0.08027419 0.32035956 0.26106024 0.059026245 0.18395144 -0.20529823 0.087153815 -0.18602511 0.28760117 -0.41110212 -0.028894879 0.17675811
낮 -0.48589426 -0.062472474 -0.4468234 -0.29702002 -0.4010407 -0.114253916 0.016845634 -0.7985554 0.7246131 -0.22807969 0.28768623 0.33834592 -0.05657061 -0.29422897 -0.64589924 0.4078899
아이 0.035920538 -0.13854113 -0.2134583 -0.25752372 -0.23030496 -0.15158302 -0.10448954 0.18701854 0.1729334 -0.11682427 0.24212457 -0.008468193 0.3861354 -0.10357903 0.16797636 -0.00967945
;; -0.044011414 -0.12646261 0.78908384 -0.26422986 0.32815298 -0.2529829 0.3609289 0.25908738 -0.025667815 0.4334485 -0.2633961 -0.20332964 0.09420754 -0.1414428 0.179082 -0.36036
오 -0.30696216 -0.13519348 -0.036598932 0.20619619 -0.00662803 -0.25962064 0.19220078 0.091908835 -0.08728208 0.11693878 0.023477381 -0.0024936688 0.14149462 0.17323886 -0.06263509 0.019915355
반전 -0.007428482 0.013362565 0.08580443 0.2064978 -0.087204024 -0.1435991 0.093666434 -0.3222683 -0.46212018 0.025186725 0.56941295 0.1319932 -0.23119418 -0.16579324 -0.032798544 0.05101861
매력 0.49963325 -0.5628745 -0.2205809 0.35318974 -0.24739347 -0.49973312 0.14752024 -0.00030289695 -0.16968948 -0.25154984 0.15616661 0.46820945 -0.8162416 0.47625962 -0.26625314 0.3074257
수준 -0.38853818 0.051543657 0.56786054 -0.6338088 -0.20203657 0.53125596 0.004367957 -0.005756893 -0.1452357 0.5203613 -0.35629782 -0.898731 0.14214417 -0.12567231 0.42006403 -0.20313023
다니 -0.10819699 0.080854565 -0.049047824 -0.092494786 0.36863852 -0.24523775 -0.1278759 -0.113533124 -0.06489564 0.11137885 0.2030796 0.24750718 0.23143736 -0.36726806 -0.07480957 -0.21703152
밋 -0.15969384 -0.225506 -0.28557685 0.451392 -0.38161632 -1.0192479 -0.75804216 -0.15749277 0.4489494 -0.42059976 -0.35007346 0.04482841 -0.027277546 -0.14600797 -0.2819234 0.39747292
웃 0.16326854 0.040508907 -0.040085938 0.04077684 0.36118552 -0.0984344 -0.520116 -0.00695764 -0.48693213 -0.41683593 0.13512872 0.15003791 0.023597164 0.40959257 -0.2327155 -0.02974212
맞 -0.01468274 -0.35252306 0.49800527 0.1704297 -0.09034666 0.07888686 0.32388392 0.35519746 0.110109344 0.1480056 0.115055606 -0.043164518 -0.17819701 -0.096248984 0.4354512 0.21088342
인지 0.4746594 -0.18441834 0.3589669 -0.15001652 0.123689875 -0.08464008 0.15631616 0.4039745 -0.12319236 0.32071087 -0.17253335 -0.15068421 0.05487926 -0.14011097 0.06478466 -0.12132677
가슴 -0.06813728 -0.29797837 -0.65836 0.74365425 -0.38380393 -0.5378398 -0.10622439 -0.083526775 0.44961917 -0.04913932 0.49094743 0.41677052 -0.34899524 0.66578025 -0.111374326 0.3205754
없이 0.30580172 0.11057936 0.48843458 -0.13562769 0.06640724 -0.27381188 -0.041324418 -0.09641957 -0.43657628 0.46163008 0.2507796 -0.4731527 -0.17964408 -0.47652745 0.29832003 -0.3899252
원작 0.20640533 -0.097037524 0.32658947 -0.37286496 0.33944517 0.12338559 0.04609402 0.38568148 -0.33228943 0.3554407 -0.3136668 -0.23218177 0.17446153 -0.24492896 0.09266608 -0.20215194
높 0.061271425 0.6875331 0.4631166 0.17341298 0.7116775 0.1859763 0.11406115 0.11115229 -0.5339894 0.14216243 -0.1695274 -0.31936857 -0.86359644 0.26981843 0.15774783 -0.22477636
ㄷ -0.12602828 -0.22957717 -0.12609905 -0.09261977 -0.08666891 -0.29615754 -0.16392475 0.1485951 0.17521884 -0.2411673 0.02656879 0.15759885 0.39443293 -0.22887824 -0.10841708 0.17731276
인간 -0.15669277 -0.20035848 0.061930355 0.067048565 -0.63535017 -0.3994464 -0.46086946 -0.40090576 -0.12547183 -0.48093495 0.50146806 0.15332942 0.27963385 -0.12759708 -0.16785467 0.47164765
데 0.2545283 -0.4596147 -0.07432972 -0.11295932 0.055133868 0.071371935 0.11921151 0.44654664 -0.10276191 0.05530324 0.21357197 0.2182645 -0.21741803 0.1160335 0.03042804 -0.16219978
ㅠ -0.012167505 -0.39595708 -0.35481423 -0.044337314 -0.1931611 0.059050884 -0.5129165 0.1024115 0.27167106 -0.22896105 0.06957056 0.15574835 0.11826826 0.15083966 -0.15594596 0.057415966
( 0.45785403 0.46461448 0.121203594 0.014739834 0.42510253 -0.011201046 0.21659143 0.48833725 -0.18239619 0.106598094 -0.24967207 0.18599898 -0.277761 0.19365323 -0.04942336 0.030769322
노 0.5426084 0.56909466 0.69714236 -0.6295105 0.8291642 0.70045316 0.5101059 0.079727024 -0.12804978 1.1156327 -1.0254651 -0.27731445 -0.08404267 -0.5671973 -0.17239682 -0.5318108
만드 0.18417813 -0.39985865 -0.18419059 0.29800862 -0.2698187 0.07291664 0.21625832 0.26595598 0.002263478 0.046268918 0.17879158 -0.15526101 -0.7321968 0.2617028 0.23266901 0.11697885
급 -0.54157996 -0.06330975 0.17829669 0.16014026 0.16995582 0.07667037 0.05500085 -0.08698556 -0.049896315 0.08735649 -0.060375 -0.086568736 0.2464383 0.30494753 -0.11427829 -0.40917352
눈물 -0.15939751 0.15007016 -0.3483685 0.08140425 -0.52312887 -0.37674934 -0.37837696 -0.47997376 -0.21045473 -0.6208163 0.37883627 0.07125278 -0.1896882 0.5374121 -0.69456327 0.7633028
준 0.2888324 -0.39945996 -0.08078549 0.15830159 0.19532809 -0.3308598 -0.10380586 0.4385805 -0.39373034 0.17986692 0.6465487 0.097885385 -0.3303842 0.14894386 0.23242474 -0.4393883
보여 -0.021687591 -0.59277564 0.18540296 0.2017661 -0.15367925 0.0083346 -0.30003214 0.29766968 -0.31285474 0.2779932 0.17883635 -0.21334037 0.0021804497 0.5103869 0.31782973 0.079995245
용 -0.5744979 0.5380282 0.0776457 0.015149526 0.025778566 0.006517579 0.3177677 -0.2045524 -0.31873858 0.006742539 -0.071744606 -0.25120342 0.45358694 0.34940606 -0.028148502 -0.40431604
찍 -0.2522759 -0.15212877 0.72238135 -0.07341059 0.2545427 0.23321857 0.6783577 -0.2388524 -0.3197341 0.41712663 0.22115344 -0.0869679 0.058821853 -0.129927 0.1648891 -0.7662353
인가 0.027913122 0.18100408 0.32584053 -0.03292868 0.265972 -0.46058828 0.12376555 0.54885626 -0.28847492 -0.08086189 -0.10526186 -0.18470249 -0.21469155 -0.19887485 0.26378173 -0.08972555
을까 0.1042885 -0.0907754 0.10921232 0.18731125 0.5344299 -0.08471798 0.18003382 0.32134962 -0.2714941 0.31429687 -0.08197182 -0.056069896 0.23722754 0.057511836 0.19786994 -0.3869693
코미디 -0.14708406 0.21489216 0.11874734 0.28432065 -0.04637352 0.060216065 -0.049731165 0.47707567 -0.40599108 -0.39907482 -0.057913613 -0.27472505 -0.35045874 0.111872144 0.18555495 0.17970335
마 0.13389693 0.112149216 0.4597331 -0.16878977 0.2607693 -0.032451216 0.2168149 -0.08252981 -0.3683476 0.3744606 0.17048034 -0.2070757 -0.20553431 -0.4807616 0.11875197 -0.33232504
화 0.018753082 -0.044340737 0.7303634 -0.0021557717 0.33771583 0.20146786 0.089810975 0.057713777 -0.082824625 0.4684623 -0.39660412 -0.35231778 0.26130477 -0.083152406 0.09851367 -0.09358568
신 0.24512796 -0.224901 0.23949388 -0.10821691 -0.30259398 0.06721756 -0.0730251 -0.18224014 0.63422906 0.19293803 0.30007815 0.031159561 0.5772053 -0.17593713 0.118838795 -0.14452854
여 -0.20226577 0.07498423 -0.039896928 0.25137514 0.088441625 0.1633469 0.13036807 0.030192032 0.0078862235 0.23781301 0.13657469 -0.0366928 0.09760604 0.0066113076 0.2834099 0.1411743
모든 -0.059967574 0.34076774 0.029158099 0.13795604 0.10113693 -0.20532368 -0.32120425 -0.08295697 -0.321807 -0.3454647 0.070917785 0.046845406 0.27326342 0.23207562 -0.27571833 0.05147157
쓰 0.5405129 -0.046986904 0.086972356 -0.10284243 0.36492708 -0.01201989 0.34759974 0.59294033 -0.23664191 -0.03816967 -0.15029718 0.19183236 -0.27745965 -0.004263079 0.13982646 -0.20913813
아직 0.14005299 -0.18750045 0.11891773 0.4473505 -0.049229912 -0.52199984 -0.4976964 0.20345017 -0.22489928 -0.16078815 -0.007772503 0.09850079 0.03430333 0.13600357 0.0069278576 0.3638601
5 0.12120226 -0.09262684 -0.24677831 -0.12644735 -0.35109636 -0.13177884 -0.18882646 0.11001629 -0.04208664 -0.36963448 -0.16157104 -0.076646015 0.40909392 0.41180542 -0.81767076 0.20471299
추천 -0.07398421 -0.46869493 -0.61330086 -0.019748524 -0.28743395 -0.04594744 0.21966363 0.04412255 0.083716296 -0.45210758 0.13291325 0.36775744 -0.33417678 0.31627914 -0.42119184 0.5377265
처럼 -0.24965756 0.3451103 0.004253062 0.12821089 0.12593117 -0.41920245 -0.19087914 0.3478311 -0.15889764 -0.20304504 0.100603074 0.0009885931 -0.122993715 0.08135171 -0.06279764 -0.08879447
눈 0.0831803 -0.02864641 0.03496709 -0.78659457 0.31672007 0.0064432947 0.05470287 0.18654124 -0.093613364 0.35978055 0.006003083 -0.29506046 0.40435538 -0.43545812 0.04256528 -0.21009359
아닌 0.9830267 -0.106326416 0.44295794 0.20601052 0.26695305 -0.120202586 0.18798298 -0.19135061 -0.8855195 0.34694204 0.27890027 -0.10416105 -0.778777 -0.5973375 0.35862976 -0.5518788
자체 -0.00859293 -0.28690454 -0.020892017 0.21948291 -0.03381289 0.0036242597 -0.004989752 0.2325963 -0.25753248 -0.0476314 0.3538888 -0.047578614 -0.25527635 0.09559389 0.035762288 -0.17547588
4 0.07502543 0.12095449 0.31467807 -0.5243984 0.06702633 0.07637595 0.37140507 -0.01604994 -0.35939857 0.33594424 -0.061758585 -0.19592822 0.22208789 0.052116882 0.12728818 -0.81376624
울 -0.5947679 -0.52103925 -0.34241644 -0.07652518 -0.25383934 -0.9947471 -0.97773176 -0.68658805 0.50714844 0.37759495 0.36030182 0.3031283 -0.29218552 0.9403552 0.022612425 -0.08570124
대박 0.2761302 0.10030068 -0.16320461 0.7862717 -0.3911966 -0.47780326 -0.40636408 -0.35643345 0.04909134 -0.28336844 0.31796867 0.25723702 -0.27565253 0.406405 -0.38487872 0.3258229
몰입 -0.09519545 -0.26505643 0.17337912 0.62301403 -0.234537 -0.1468488 -0.040195577 -0.16027759 -0.3411897 -0.069144905 0.53218156 -0.34579194 -0.520677 0.4462483 0.16163756 -0.119623125
몇 -0.034678206 0.1723519 -0.18139198 0.26599255 0.2320732 0.18689193 -0.18906726 0.17260787 0.20753326 -0.37771603 -0.030078672 0.27756172 -0.13345826 -0.10404534 -0.18292841 0.050029952
실망 0.20705819 0.79145175 0.3517547 -0.8953741 0.7165396 0.9119159 0.8294616 0.055217464 -0.30448532 0.71020925 -0.067864135 -0.3302152 -0.3677678 -0.49483648 0.78624636 -0.80616635
스럽 -0.2761066 -0.025474343 -0.04053936 -0.18997726 0.3581832 0.0988184 0.084545285 -0.37997025 -0.18352842 0.09979843 0.47741452 0.28419343 0.034085162 0.16669378 -0.06899835 -0.09680939
는다 -1.0968602 0.42463094 -0.03720779 -0.1366078 -0.17101891 0.37610024 -0.115547 -0.31969476 0.3577319 -0.23210886 0.18661146 0.23730327 -0.15906712 0.32711422 -0.13512015 -0.08363501
대한 -0.117194906 -0.67392987 -0.14843775 0.371751 -0.13360955 -0.46962443 0.12430935 0.11247149 0.057983335 -0.24421887 -0.07136121 0.37901354 0.025267735 0.3491335 -0.3731787 0.35655814
죠 0.026684638 -0.005070568 -0.16712205 0.5786613 0.005415392 -0.07641803 -0.41459385 -0.22272287 0.72276676 -0.2016855 -0.11953083 0.21568295 -0.10020076 -0.07381526 -0.23341757 0.3052135
란 -0.4968977 -0.010157045 -0.2435056 0.028491044 -0.01999154 0.14578569 -0.04852405 0.17213275 0.025768057 -0.46361664 0.2730177 -0.14331174 0.68071693 -0.013404142 0.19578098 -0.0051182397
그런 0.71853083 0.04223598 0.09063359 -0.302294 -0.11487084 -0.053116154 -0.15317391 0.28524885 -0.14959548 -0.009864279 0.03400851 -0.22825362 -0.07899513 -0.2450677 0.076369174 0.037385184
솔직히 0.025617661 -0.101560965 0.31803945 0.119213924 0.24092624 -0.4931615 0.16513385 -0.010137618 0.27144873 0.31281695 0.30696204 0.063287675 0.06298027 -0.042669028 0.47078446 -0.6317036
ㅎ -0.07558575 -0.34943447 -0.5932443 -0.30942407 -0.18103738 -0.274935 -0.57077557 0.27702874 0.31758764 -0.3924264 -0.32634372 0.20064235 0.08675537 0.23353308 -0.37386835 0.13952911
캐릭터 0.26583573 0.16318485 -0.049774557 0.10154003 0.06474845 0.17573583 0.2807887 0.15602279 -0.63881886 0.07620637 0.11582336 0.069976784 -0.30176002 0.29806355 0.21611936 0.06834445
아주 -0.17649703 -0.46892914 -0.3444907 0.22895308 -0.2836213 -0.18907645 -0.24806531 0.28053382 0.11868005 -0.029868625 -0.006544294 -0.24757966 -0.08493689 -0.28253362 0.14059341 0.67076445
모두 0.1724348 -0.0010446704 0.19432735 0.13819021 -0.32659808 -0.10859341 0.03579397 0.1313366 -0.50610995 -0.45397153 0.52700406 0.05829225 -0.9244825 0.15720998 -0.047618706 0.06745434
- 0.35671344 -0.18956876 -0.4052437 -0.21704926 0.17763202 0.20994182 0.20918444 0.19488573 -0.032615025 0.24392696 0.1419635 0.0072369105 0.2427202 -0.21524136 0.0636404 -0.28845528
가족 0.20196375 -0.2137458 -0.028774707 -0.008544043 -0.4366691 0.20832625 -0.08066651 -0.18288033 -0.18410984 -0.07089607 0.2913899 -0.19814755 0.19264704 -0.09263741 -0.1738053 0.2300536
여운 0.26562092 -0.34686562 -0.8865074 0.8533469 -0.6594894 -0.3430153 -0.39500087 -0.7872428 0.35487404 -0.36691946 0.91092235 0.6456342 -0.6194916 0.7226098 -0.29410177 0.52331734
건지 0.21119311 0.18279348 0.20878355 -0.12099637 0.13113669 0.3180582 0.49817342 0.1458611 -0.06804908 0.044303034 0.06929862 -0.216849 0.04399795 -0.42624828 0.44922614 -0.065908566
전혀 0.4436818 0.048859067 0.05145605 -0.38521615 -0.050480034 0.27025643 0.21019475 0.21377015 -0.045297466 0.24979025 -0.09802167 -0.10399339 0.3348505 -0.192086 0.14716828 -0.13778648
연기력 0.27681053 0.013192752 -0.005313347 0.6693097 0.5219651 -0.02640105 0.20820792 -0.09670515 -0.2263112 0.04125189 -0.008571907 0.10603261 -0.5306903 -0.39038524 0.41045332 0.011999059
나라 0.25575078 -0.22115017 0.4219233 0.011343059 -0.097141154 -0.061995424 -0.41892603 -0.021304576 -0.36258283 0.07337146 0.22035956 -0.6863047 0.53303456 -0.5096772 0.02149655 0.03390248
후 0.114885345 -0.5794347 -0.022003083 -0.22642101 0.47900298 0.23947488 0.3490808 0.044581305 -0.04381535 0.62848693 0.05287362 -0.4121118 0.12660003 -0.5633161 0.47787097 -0.16292739
다면 0.7709842 -0.33159682 0.44446328 -0.04568769 0.02538483 -0.5280252 -0.29251987 -0.19234698 -0.07740403 0.07073494 -0.013665153 -0.08980094 0.06663377 -0.3440666 -0.21591993 -0.10208153
될 0.30419216 0.37440482 0.29893178 0.2063149 0.13910922 0.17686713 0.17195855 0.18989529 -0.013458128 0.08680439 -0.08642008 -0.09840768 0.28452003 -0.31733578 0.3642709 0.23578228
뭔가 -0.06258395 0.08777347 -0.1628241 -0.1591943 -0.04778556 0.13254407 0.3925432 0.102090366 0.028877256 -0.03354498 0.19787638 0.16562869 -0.22170295 0.33179036 0.029235816 -0.0023311873
그래도 -0.11388738 -0.28800276 0.22408842 0.4103177 -0.19377412 -0.37630668 -0.15826839 0.19877806 0.20103586 0.09377939 0.03469867 -0.04506914 -0.18698521 0.60481346 0.03684749 0.13897331
; 0.028173335 -0.34672338 0.22174415 -0.17759715 -0.30147183 -0.26072076 -0.03313009 -0.042349033 -0.38209635 0.13627826 -0.025964925 -0.5444691 0.29940978 -0.42838734 -0.06474057 -0.4471404
시리즈 0.02086254 -0.12876771 -0.30246523 0.37290928 -0.23515554 -0.28721118 -0.42281395 0.3116871 0.2636327 -0.4007019 0.19473633 -0.16691893 0.124695234 -0.053341728 0.15870582 0.0728845
근데 -0.20384336 -0.47581834 -0.23857175 0.39689296 -0.30576324 -0.35906032 -0.2254769 0.076818004 0.18971038 -0.098384514 0.30809188 0.17494465 -0.25154528 0.18734364 -0.25246587 0.40490666
작 -0.5866488 0.0226995 -0.17507277 -0.31630847 0.16903566 0.4085793 0.228281 0.032497965 0.08707894 -0.042663235 -0.010343742 -0.20901003 0.39345226 -0.2546537 0.23997124 -0.22903888
표현 0.29525587 -0.033065405 -0.28116632 0.16701137 -0.14059241 -0.43151227 -0.24267367 -0.2746666 0.017770452 -0.3911455 0.55941486 0.549508 -0.33280218 0.23611917 -0.36249924 0.016756676
모습 0.3877591 -0.17661776 -0.33161706 0.0035078474 -0.069125965 -0.23209845 -0.4307413 0.17720355 0.13537005 -0.24548326 -0.15856016 0.21989909 0.18022692 -0.028733756 -0.3269758 0.3197244
공감 0.36405373 -0.4624877 0.2864963 0.47098753 -0.37826595 -0.19536519 -0.09221101 -0.06703366 -0.26887587 -0.41139352 0.31374738 0.17232549 -0.5881449 0.52816206 -0.46502575 0.3759796
계속 -0.68111676 0.3510061 -0.11978476 0.032400258 -0.14847343 -0.018698586 0.10205929 -0.07092546 -0.010266908 -0.11799114 0.04334222 0.23986314 -0.13360548 0.64232844 0.04532431 0.40157425
먹 0.18199001 -0.342246 0.29358926 -0.35934815 0.019290447 -0.17610562 0.2857507 0.09870545 0.0019930177 0.48968947 0.055633582 -0.29214454 0.46751916 -0.6283904 0.3314364 -0.4829309
"" 0.70259386 -0.71015054 0.16447277 -0.19693463 0.056522556 -0.08848824 -0.049186874 0.16491361 -0.0009303277 0.09610984 -0.081221335 0.3509181 0.17525016 0.009487309 -0.42603162 -0.17962381
제목 0.007667135 0.08681798 0.061112046 -0.09206069 0.034417372 0.0603599 -0.22840622 0.07385587 0.12844335 -0.1183134 -0.35529867 -0.03242452 0.01624934 0.033710875 -0.3515171 0.19060849
7 -0.17698555 -0.11366769 -0.48925582 -0.050386984 0.089511305 -0.3673847 -0.49741456 -0.11990638 0.47759533 -0.013745639 -0.08431633 0.14327374 0.21271427 0.22037992 -0.10983542 -0.17007312
이랑 -0.04649755 -0.13370217 0.15525053 0.008638831 0.41246286 0.044514988 -0.011267426 0.04883959 -0.138662 0.5150323 0.015143486 -0.19965425 0.012528688 -0.16537619 0.2873068 -0.19166665
극장 0.1101787 0.6236036 0.15247071 -0.28796333 0.13141163 0.14804736 -0.00050438964 0.12683652 -0.05945026 -0.044537276 -0.04828152 -0.23592615 -0.2024973 -0.2253631 0.36888948 -0.35100153
치 0.3676995 0.02906738 0.6218856 0.35466188 0.61304575 -0.13161124 0.21612208 0.21513955 -0.45850563 0.3313895 -0.28824815 -0.22435303 -0.17021126 -0.03795357 0.12553214 -0.78289557
비 0.0405471 -0.09096645 0.03155992 -0.04897713 0.105847195 0.39937744 -0.026041245 0.24820544 0.079495415 0.10794371 -0.34135154 -0.2889657 0.4826573 -0.23016883 0.47246364 -0.21448855
이걸 0.16081063 0.22867596 -0.05311845 -0.060084842 0.02163022 -0.0048249974 0.25112164 0.22248435 -0.10665389 0.17128985 -0.12691669 -0.14057548 -0.001013571 0.2944335 0.04462283 -0.44759327
진 -0.013980116 -0.19187507 -0.06613691 0.5078904 -0.3140275 -0.61859095 0.094083376 -0.05185265 -0.012462301 -0.38364866 0.4775179 -0.07498947 -0.44381174 0.03160865 0.021244375 -0.07275292
바 -0.26382184 0.24973434 0.45563987 -0.51695573 0.014554056 0.5974177 -0.0104533145 0.25893292 -0.14167403 0.3522035 -0.56808776 -0.3193393 -0.09234634 -0.09388408 0.012826852 0.16586453
0 0.96680254 -0.093423285 0.17620829 -0.34960917 0.33459532 0.33890617 0.08092396 0.7400806 -0.10006137 0.6685967 -0.7030215 0.0447795 -0.46324202 0.2754059 0.62588656 -0.59665346
OO 0.34277648 0.26606464 0.5209657 0.31888422 -0.117452525 -0.09427777 0.064663954 -0.053752102 -0.23016721 -0.0665943 -0.09990538 -0.49685663 0.47413862 -0.4066527 0.080918655 -0.36273575
그렇 -0.11001712 0.4276883 0.6425031 -0.0175599 0.205932 0.58865035 0.40710765 -0.061347697 -0.29408357 0.27395386 0.060872696 -0.2022525 -0.0063154297 -0.20930135 0.16053025 -0.19464123
대사 -0.30640143 -0.34894672 -0.22069594 -0.5532493 0.29903683 0.3356148 -0.05308353 -0.0851412 0.047976702 -0.0154461935 0.1366075 -0.15664981 0.23206218 -0.50652826 0.5577378 -0.1749039
부분 0.72911626 -0.2806221 0.36742294 -0.6046688 0.18254846 -0.16635685 0.32548672 0.5079554 -0.4234531 0.25691488 -0.14295012 0.257132 -0.06974313 -0.13071826 0.059435703 -0.45447
개봉 -0.06066942 0.41516495 0.12742487 -0.30911756 0.15660273 0.15092656 0.4333793 0.35279614 -0.0892029 -0.123886056 -0.10644705 0.0021820208 -0.114556625 0.19593252 0.04731389 -0.3143983
대단 0.1309383 -0.6118465 -0.52498984 -0.020361682 -0.15056048 -0.32385644 -0.46912327 0.02708315 0.29130134 -0.5100435 -0.047462028 0.23852226 0.10086148 0.15013416 -0.6366046 0.35135302
어디 -0.013041895 0.2150525 -0.02336465 -0.3382125 0.3971059 -0.115477726 0.27857327 0.097132206 -0.06846667 -0.14705607 -0.42206505 0.03046746 0.54678744 0.07183324 -0.2703581 -0.16709697
된다 -0.39902255 0.0046601826 -0.59868616 0.08973883 -0.091292635 -0.28815544 0.14465196 -0.048754197 0.43245372 0.11856036 0.078620754 0.11834806 0.04608082 -0.021676537 -0.033050034 0.037119202
작가 0.04789909 0.13782564 0.1056586 -0.00035200187 0.23330285 0.51832443 0.26547498 0.10505608 -0.4079486 -0.013522538 -0.11891564 -0.39152342 -0.2952356 -0.19100553 0.20286854 -0.08463744
기분 -0.16939655 0.38556597 0.26833457 0.015873218 0.35197252 -0.015920803 0.13399024 0.16862835 -0.32207507 0.038844917 -0.21223919 -0.11007032 -0.30232647 0.20103006 0.09629542 -0.20096895
아쉽 0.7767873 0.114526905 0.16221604 0.0866226 0.012733072 -0.3119624 -0.6359032 -0.20761293 0.024728786 -0.3427119 0.12715445 -0.15729824 -0.0068057687 -0.7861899 -0.055945545 0.08012751
제 0.18947075 -0.18080111 -0.112518385 -0.3694168 -0.07875412 -0.30720964 -0.2351268 -0.03620481 -0.33099747 -0.14618084 0.34351942 0.05416613 0.047336392 0.015686935 -0.7625708 -0.2345339
진심 0.004046105 0.06275107 0.24484484 -0.057752155 -0.072994605 -0.27489913 0.16856347 0.37483978 -0.42669487 0.12522902 0.20961349 0.009899956 -0.49678206 0.35602272 0.018267937 -0.39710036
타임 0.045273323 -0.10076092 0.14580488 -0.2501414 -0.048756514 0.06425404 -0.09065508 0.117591985 0.0848349 -0.024005847 -0.11342241 -0.024313841 0.31483486 -0.39951947 -0.1126504 -0.03868007
/ 0.036511935 0.3350731 0.005593487 0.041440148 -0.071926795 0.051044986 0.035611015 0.17704491 0.06700971 0.09105476 -0.07665867 -0.22035824 0.08029653 -0.26582894 0.16868179 0.24460202
놓 -0.011497632 0.16444474 0.40531895 -0.4480383 -0.11059207 -0.13673736 -0.52235055 -0.048012506 -0.40492395 -0.066274345 0.270595 -0.686884 0.16642512 -0.41984144 0.13739663 -0.017982159
웃기 -0.006308413 -0.19863467 -0.20521437 0.28165215 -0.16996783 -0.017163372 -0.21977033 -0.31803608 0.48352656 -0.278432 -0.087875225 0.2321087 0.067409284 0.037507683 -0.4293608 0.7922391
보이 -0.388052 -0.092288405 0.22852783 0.3815449 -0.016096247 0.2603126 0.081000194 -0.2519148 0.0021365308 0.10649485 -0.058996618 -0.19639239 0.5107339 0.13250108 -0.13529849 -0.05917605
해도 0.66001004 -0.07776293 0.18703331 -0.058518708 0.33551037 -0.13086592 0.102951474 0.28770074 -0.19245651 0.29238543 -0.15078753 0.21425016 -0.2799709 -0.075590074 0.30203262 -0.29658574
이제 0.4184807 0.43137327 0.35122454 0.04543707 0.28665572 -0.1597595 0.10489505 0.05395823 -0.28061232 0.10748663 -0.2074483 -0.40462947 0.021174666 -0.8176495 0.10174172 -0.1521921
물 0.41712013 0.08667922 -0.06078879 -0.044369906 0.076509304 0.23092343 -0.20755826 0.33891007 -0.22611888 -0.07721928 0.072843894 -0.23579328 0.084773995 -0.11709627 0.10811949 -0.070221074
봐야 -0.28533164 -0.2817244 -0.40135482 0.14879774 -0.2875891 -0.2657899 -0.4701208 0.14339253 0.42928165 -0.62754 -0.12372553 0.24152775 0.16674821 0.22441775 -0.4582331 0.25887895
막장 -0.27662253 0.07312448 0.5686792 -0.89904386 0.29565653 0.79442465 0.7854874 -0.13827983 -0.2586124 0.61463106 -0.043463267 -0.3898595 -0.15354483 -0.15316859 0.0146353375 -1.2586362
삶 0.027254201 -0.30382884 -0.5821327 0.86926866 -0.7136631 -0.31096423 -0.25101408 -0.2524341 0.28525212 -0.4955801 0.451058 0.2511199 -0.7597681 0.31424287 -0.2781433 0.76608795
친구 0.3367511 -0.45369852 -0.06789078 -0.065016516 0.010949317 -0.5031232 -0.35587534 0.05388198 0.20094277 0.107004054 -0.18515533 -0.1597012 -0.10926553 -0.5442215 -0.03482782 0.21325392
잔잔 -0.38879868 -0.2309209 0.20803942 0.43782908 -0.36203682 -0.40071914 -0.02264014 -0.22338925 0.05316605 -0.4601156 0.49983627 -0.10627658 0.043560155 -0.23334865 0.0575736 0.4671437
씬 0.06375929 -0.47004652 -0.14434785 -0.22041868 -0.0020673645 -0.116078615 -0.16166183 -0.09336194 -0.23357469 0.041773587 0.1864313 0.06916801 -0.05933625 0.15877484 -0.17055835 -0.15786032
조금 -0.23492374 0.017963527 -0.04021245 -0.25738442 -0.28045502 0.11922076 -0.35098794 0.046129305 0.11066614 -0.013762548 0.20880331 -0.25688848 1.3020864 -0.37545824 0.20724408 0.16587791
딱 0.3997594 -0.47107792 0.6181541 -0.40858817 0.014206796 -0.11688908 0.17083548 0.2347462 -0.21309334 0.214439 -0.028734729 0.1358445 -0.04389175 -0.07845916 -0.110016614 -0.23401096
억지 0.443279 0.81824964 0.6619449 -0.255928 0.63217163 0.25359607 0.3579737 0.09492198 -0.60500467 0.63125193 -0.49549726 -0.5095116 0.023582391 -0.55374366 0.12437391 -0.74074036
영상 0.2630391 -0.36172906 -0.4332642 0.2879506 0.43497986 0.20408903 0.26162055 0.09726999 0.2126045 -0.03698143 -0.09380985 0.21092731 0.072182775 0.013795376 0.0131454775 -0.11732529
찾 0.40342274 -0.001955957 -0.04769736 -0.12856074 -0.14198938 -0.048952006 0.20040192 0.0030887146 -0.15139234 -0.14605758 0.13529818 0.20454049 0.30748066 -0.109751575 -0.11767763 0.0166513
요즘 -0.38850632 -0.029965095 -0.3823911 0.30430642 -0.43552163 -0.24865532 -0.30913737 -0.4399272 0.078522235 -0.3021981 0.08870616 0.10042823 0.23758925 0.33285117 -0.48178065 0.3713916
같이 -0.26825872 -0.58343804 -0.16650224 -0.0027194694 -0.16596785 0.12699829 0.08932374 -0.14473647 0.22460096 -0.133704 0.47450665 -0.14177027 0.26320675 -0.0982979 0.10022358 -0.30249715
" 0.05917344 -0.029880889 -0.270908 0.3115391 0.052774597 -0.06516935 0.11377185 0.1212339 -0.02401502 -0.25939292 -0.11347269 0.39337203 -0.23700254 0.27856752 -0.14939171 0.039771806
중간 0.047103547 0.13286337 0.30189693 -0.57014716 0.45604748 -0.05847572 0.19215412 0.11656946 -0.112416245 0.27831823 -0.11977443 0.08972316 0.24020146 0.08533886 0.023652958 -0.49884212
구 -0.4079345 -0.026351897 0.13627832 0.22653666 -0.0020241549 -0.35333264 -0.06848692 -0.13941449 -0.3043439 -0.017436037 0.019558921 0.2751646 -0.08443039 0.38578007 -0.4471095 -0.062688574
스릴러 -0.17243746 0.18915969 -0.5818678 -0.15968338 0.36515954 0.44449952 0.18924886 0.11626759 -0.0967422 -0.26997042 0.010575267 0.057241153 -0.3077378 0.20539062 0.1755048 0.11692229
라도 0.37524915 -0.16693485 0.48507538 0.16668677 0.08053276 0.023850972 0.27397987 0.39673522 -0.49582118 0.51561975 0.049260587 0.04617031 -0.69476664 0.3010839 -0.016923316 -0.43566597
.... 0.22754943 0.118779175 -0.551618 -0.06034816 0.036261138 0.36531395 0.40784243 0.19656587 -8.57017e-05 0.23015884 -0.08601807 -0.06600941 -0.41604316 -0.20742589 0.60253716 0.14885812
가지 0.1263234 -0.5492504 -0.09065504 0.23867802 0.12942159 0.35024768 0.044742227 -0.10961021 0.1150875 -0.01051168 0.38713264 0.10023223 0.2230145 -0.038890105 0.4164683 -0.20575225
8 -0.25209352 -0.7742954 -0.15409711 0.3504598 -0.17641892 -0.35399693 -0.3722158 -0.3169219 0.48047876 -0.26439244 0.49554342 0.26549777 0.14158602 -0.022590501 -0.43619385 0.30159968
믿 0.12478137 0.19990869 -0.602347 0.2240511 -0.3454703 -0.35439384 0.16822988 0.015950657 0.21757333 -0.2991165 0.02872721 0.25933364 -0.11252612 -0.057367824 -0.037730176 0.28087407
싫 -0.17706446 0.60147226 0.58396035 -0.26046026 0.34189612 0.12185681 0.091943696 -0.21455224 -0.2283512 0.4632039 0.19381629 -0.2758549 0.11124562 -0.17982687 0.34728754 -0.54889035
아까운 -0.5532817 0.40934277 0.10349642 -0.35101014 0.37963054 0.3756281 0.65022695 0.39840978 -0.3378877 0.22862196 0.09031162 -0.16125794 -0.45780313 0.22054571 0.95561606 -0.8106756
나왔 -0.28971922 0.14312375 0.23968567 0.033947103 -0.07637664 -0.026604049 -0.044045527 0.3383382 -0.17913167 -0.3983245 -0.12725988 -0.17029317 0.22414033 0.15205957 0.04084465 0.10979701
점수 0.54888856 -0.23371635 0.07624665 0.1302892 -0.6192273 -0.22775605 -0.049099907 0.30570558 0.1926411 -0.19400081 -0.49573985 0.10020831 -0.21170115 -0.13043393 -0.42851216 0.82244605
긴장감 0.6829327 -0.1916347 -0.1728785 0.07324548 -0.6808304 -0.26229748 0.012569792 -0.064382695 -0.5790203 0.06216124 0.610378 0.19974072 -1.3234478 0.40318525 0.017964374 0.115359016
부족 -0.012161133 0.7270294 0.18646957 -0.1677357 0.58179766 0.4013016 0.5067772 0.032146227 -0.0946193 0.115594424 -0.31037533 -0.36777857 0.0050371857 -0.560322 0.5322603 -0.28556547
개인 -0.030156182 0.2291921 0.27442375 0.063963 -0.031163752 0.19908774 0.27902317 -0.07298543 0.0053869938 0.14610836 -0.10693657 -0.17831708 -0.12824205 -0.001168133 0.14984095 0.29437184
제대로 0.33173218 -0.54371285 -0.08626473 0.30193886 0.09898286 -0.5678692 -0.124816746 -0.08694954 -0.32274595 0.023864161 0.4950551 0.30218685 -0.62278116 0.16325627 -0.023457617 -0.036148295
노래 -0.07761227 0.18543535 -0.3217553 0.184207 0.5942919 -0.08391938 0.13712287 -0.2804679 0.2163955 -0.19845158 -0.0639729 -0.15873702 0.7430317 -0.27696797 -0.25634378 -0.24122137
이유 0.18886258 0.06751229 -0.0769565 0.33343795 0.3878216 0.2859656 0.49859515 -0.106073916 0.07157273 0.14122936 -0.050308898 -0.04764949 0.4888673 -0.5600535 0.24232861 -0.049209498
만큼 0.19075157 -0.23913217 0.6508924 0.56193537 -0.31264722 -0.39410964 -0.12171762 -0.3161305 -0.41907522 -0.116195895 0.38813013 -0.07598614 -0.76181436 -0.008053555 -0.616477 0.16843434
라면 0.15862794 -0.26224312 -0.31761557 0.4013019 0.29900905 0.035968594 0.20851976 0.26168478 -0.0029169717 -0.14600432 -0.09708226 0.17074819 0.1489259 0.21190144 0.083383866 -0.10468119
시작 -0.23087105 0.097415365 -0.13293204 -0.058382884 0.34178784 0.11062278 0.12940693 0.0726241 -0.024341729 -0.043584663 -0.062210206 0.029253012 0.29353967 0.33655384 0.025736371 -0.5705487
구나 -0.31374872 0.028593335 -0.14532362 0.05104543 -0.0068719736 0.20699356 0.54102856 -0.13511947 0.13365899 0.13858937 0.37639597 -0.063868985 0.0005642383 -0.19398555 0.24056341 -0.046618048
잇 -0.078326456 -0.8993473 0.08603687 0.10727103 -0.03874638 -0.16123657 -0.51111895 -0.04664141 -0.18096064 -0.23557335 0.19711128 -0.08594888 0.32418707 0.3188868 -0.11042672 -0.23143527
특히 -0.36319217 0.4852226 -0.34553275 0.15958825 -0.036347385 -0.17473206 -0.09275341 -0.34189147 0.24278618 -0.5482825 0.10397411 0.3557005 -0.18559115 0.16233477 -0.22559732 0.26989746
한테 -0.1076705 -0.6311528 0.097595975 0.10139725 0.14542532 0.10396502 0.53852856 0.6522185 0.20415534 0.48270348 -0.07884395 0.35378334 -0.2880056 0.27371013 0.6517927 0.16558482
날 -0.047737055 0.14340998 -0.3848189 0.08304571 -0.27771986 -0.21962383 -0.044061556 0.0845603 0.17689018 -0.27635255 0.28226745 0.23158275 -0.21405075 -0.028916983 0.1761795 -0.26863033
아름다운 -0.28757876 -0.42691845 -0.5948348 0.3751536 -0.58027226 -0.4193648 0.043641347 -0.0627615 0.5237345 -0.2771661 0.4943878 0.5760305 -0.37413692 0.6528235 -0.5424902 0.3814773
려고 0.22783443 -0.074571766 0.34911737 -0.37617078 -0.41709074 0.02537624 0.06773492 0.14784119 -0.8422753 0.1616661 0.3081752 -0.5057113 -0.08876559 -0.015458123 0.2072189 -0.24338518
제일 0.08558398 0.46635115 0.33694273 0.35231692 0.0863876 0.04595263 -0.08341084 -0.003517343 -0.67816484 -0.39501452 -0.21102083 -0.29165345 -0.15466 0.42057747 -0.6115426 -0.12094778
시대 -0.21735743 -0.03129463 0.078648835 -0.11608086 -0.24686748 -0.5435493 -0.026726587 0.015311601 -0.41763896 -0.042742662 0.23930553 0.12146291 -0.3144079 0.44679463 -0.3614093 0.10492397
ㅜㅜ -0.36272725 0.022083864 -0.43026468 0.14812899 0.47795358 0.2652997 -0.18547638 -0.22561179 0.07609271 -0.24271673 -0.42220387 0.10100867 0.13980643 0.465323 -0.37511772 0.28477356
어떻게 0.6366948 -0.17076413 0.72669643 0.021135468 0.3508148 -0.0065282714 -0.015560267 -0.122824 -0.038254153 0.2445586 -0.25232935 -0.16579446 0.319385 -0.5737595 0.06277559 0.45211703
엔딩 -0.15885656 -0.37052405 -0.24620457 0.11840458 0.11785127 0.016808618 -0.09486339 -0.3462315 0.2758604 -0.070453346 0.020327587 0.2253568 0.27613395 -0.0106460145 -0.44242784 -0.2736151
당시 0.18838526 -0.575427 -0.1846191 0.086027846 -0.118757755 0.07691174 0.05644777 0.13206768 0.23179221 0.23738699 -0.111929744 -0.221723 0.2898227 -0.15694624 0.19308195 -0.21010958
봐 -0.085466 -0.325311 -0.116198756 -0.26789165 0.16138314 -0.06625784 0.39295092 0.6265475 -0.07631062 0.19516565 -0.1622657 0.2800517 0.016460478 0.27053168 -0.25432184 0.040809534
하지만 1.0596024 -0.002063575 0.07286258 0.15091538 -0.2832146 -0.13714665 -0.3255951 0.34540612 0.061371453 -0.07150639 -0.22225489 -0.009106896 -0.34928137 -0.23794158 -0.20890455 0.18653521
나름 -0.31556833 -0.5149589 -0.30714285 0.30633813 0.003975297 -0.11520512 -0.37000832 0.15039748 0.14268042 0.056155734 0.05547079 -0.19753486 -0.054903835 0.21461041 0.070255645 0.045897312
무섭 -0.25258604 -0.49319094 -0.0014910656 0.45913386 -0.15450692 -0.23863679 -0.021960394 -0.103002906 0.2102536 0.2487234 -0.03827127 -0.13566981 -0.0034327675 0.5022018 0.22531153 -0.08621062
명 0.12804697 0.15689878 0.28029218 -0.049250875 -0.08049858 0.30048633 0.30481368 0.19790122 -0.0644094 -0.004762755 0.08165873 0.032109432 -0.18747334 0.1101187 -0.088695675 -0.043301538
나온 -0.6133788 0.48285353 0.036991622 0.21496376 -0.20029584 0.066511646 0.3092269 0.15507483 -0.13274561 -0.41217658 0.0010220972 -0.2109947 0.4857732 -0.0300418 0.107289255 -0.041808613
해요 -0.34621504 -0.29417408 -0.29423416 0.3269428 0.18178895 -0.25291562 -0.10181381 -0.41624895 0.37287536 0.028869145 -0.086506635 0.44912383 0.2985902 0.23397852 0.07912266 -0.16696545
이것 0.3467326 -0.17710581 0.10586565 -0.12058517 -0.38972428 -0.20276515 0.06495149 0.31304395 -0.17471606 0.0021425162 -0.041130893 0.17672266 -0.5255581 0.3731856 -0.38830015 0.19002235
사 0.26632872 -0.14228995 -0.089072 0.4924471 -0.116568975 -0.45026502 -0.27540636 -0.16184513 -0.21317114 -0.120164305 0.33372664 -0.0124764405 -0.15513888 -0.09445036 -0.20042789 0.08305519
오랜만 -0.49056143 0.21686025 0.16305369 0.8727151 -0.2179011 -0.18243977 0.09396907 -0.31108868 -0.08224622 0.041979328 0.37016183 -0.13207437 -0.48005158 0.614332 0.37363863 0.05451105
9 0.10284607 -0.87213117 -0.19438711 0.7554732 -0.5809795 -1.1372615 -0.3243875 -0.19497187 -0.25165054 -0.27720615 0.37873375 0.40431556 -0.3570451 0.42614543 -0.14630707 0.6030208
니까 0.29332742 -0.19068478 0.011217869 -0.11550386 -0.4209366 0.07393104 -0.5849064 -0.47802776 0.0468571 -0.11901487 0.7699463 -0.32602307 0.08810465 -0.19966982 -0.3215283 -0.07548828
팬 0.51933223 -0.4252447 -0.06924485 0.058844913 -0.02433328 -0.10626746 -0.018376771 0.2522404 -0.21533687 -0.15722613 -0.07498454 0.10046081 0.02566849 0.14898807 -0.3219592 0.13425541
차라리 0.028257359 0.43211293 0.5654574 -0.79091835 1.2837033 0.8105305 0.73585784 0.4174162 -0.12342561 0.719632 -1.1142607 -0.6928923 -0.25933096 -0.67152655 0.9996512 -0.6608556
절대 -0.16276091 -0.52158344 0.018755842 -0.12391928 -0.010800881 -0.035903737 0.23711696 0.2982392 -0.311711 0.15002777 0.15499818 -0.2288646 0.15236242 -0.025207136 0.32516295 -0.082233824
세상 -0.4378077 0.0577536 -0.14421044 0.5969701 -0.28408787 -0.12519455 0.25967595 -0.10128662 0.1475659 0.059997693 0.1284436 0.29582885 -0.030185834 0.17546427 -0.017020285 0.5195545
세 0.3089474 -0.15533482 -0.18380848 -0.5919772 -0.08761672 0.14069326 -0.348262 -0.13482387 -0.11842605 -0.024964765 0.40272713 -0.24111257 0.07182426 -0.18532534 -0.097250804 -0.2143373
던데 -0.69404733 0.69813967 -0.003869032 -0.6468596 0.05594125 0.05347946 -0.061045654 -0.6193046 0.20355918 -0.17636916 -0.18803683 0.32634363 0.2142382 0.20614104 -0.54036695 -0.44979814
의미 -0.041411236 -0.27784243 0.10460354 0.08817437 -0.22397289 -0.017784638 -0.024748418 -0.03378351 -0.66027874 -0.355744 0.49574837 -0.39015633 -0.1796407 0.18843654 -0.0032899033 0.055212587
못하 -0.15753105 0.1864287 0.12930444 -0.2671858 0.76552093 0.0318462 0.15697846 -0.17597176 0.0103971 0.5556951 -0.17915973 -0.15553889 0.29180047 -0.49840802 0.3952899 -0.3901417
따뜻 0.2571033 0.24447003 -0.18932211 0.52887136 -0.71275884 -0.68816566 -0.39720687 -0.2421538 0.0059579737 -0.35223088 0.53381085 0.22452193 -0.6192972 0.5778005 -0.55796677 0.032283466
봄 -0.3981012 0.10956169 -0.17840365 0.21197382 -0.26905823 0.011284194 0.13273777 -0.100985184 -0.09214655 -0.21249588 0.2700939 0.14260313 -0.14086647 0.1697831 -0.13886404 0.3104015
욕 -0.49926567 0.3513361 0.37711886 -0.70566857 0.1882775 0.5064091 0.3405103 0.08461318 -0.2637543 0.26873744 -0.05652339 -0.37711582 -0.004622791 0.15297213 0.14397323 -0.6179116
강추 0.11015492 -0.34273002 -0.21520352 0.8154222 -0.6820037 -0.6866174 -0.053671565 -0.35618508 0.1323624 -0.12561974 0.31745112 0.5393844 -0.41621977 0.9466976 -0.5721816 0.90199214
훌륭 0.15925899 -0.23486745 -0.9741131 0.10923029 -0.36042085 -0.2153554 -0.1452245 -0.20817399 0.016829053 -0.39675203 0.43777978 0.37737173 -0.71798384 0.58198225 -0.3312506 0.4805598
너무나 0.07771584 -0.2615333 0.0020564678 0.6910509 -0.07839381 -0.40406084 -0.2044289 0.46445453 -0.22856666 -0.16623643 -0.10447111 -0.14243062 -0.45700172 0.6040499 0.16620247 0.08254523
ㅡ 0.19451414 0.0804059 0.02236371 0.13714504 0.19766153 0.20043536 0.35071024 0.2803939 0.0012473282 0.04406453 0.116748326 0.0643657 -0.32545725 -0.008874723 0.21867062 0.10503331
감 -0.14840531 0.4147352 -0.123933725 0.3680601 0.22944482 -0.056960277 0.1362973 0.14817362 -0.12240047 -0.22380847 -0.014841343 -0.054478846 0.004967897 0.09402867 0.20507781 -0.19240873
됨 -0.8551865 -0.51913154 -0.16687435 0.19799681 0.3047598 -0.09619641 -0.05182471 -0.4804041 0.4706699 -0.110097855 -0.3442128 0.46749517 0.39149904 0.43937615 -0.24488898 -0.12774673
느끼 0.29428774 -0.021469988 -0.083638385 -0.15890181 0.3239405 0.03353479 -0.71620184 -0.4947316 -0.17908126 -0.033263728 0.23493907 -0.25065097 -0.10202294 -0.116651684 0.10416593 -0.10301507
해야 -0.28779134 -0.5058445 0.10094491 0.29771337 -0.32139048 -0.35124218 0.14625835 -0.01624892 -0.08998092 -0.054330707 0.42913893 0.26910824 0.21516594 0.06786847 -0.14492448 0.16624914
빼 0.96913457 -0.08563469 0.6366296 0.04231551 0.30884647 0.13824794 0.3918411 0.17751554 -0.4077751 0.46852013 0.0051980647 0.19035499 -0.5684886 -0.29387876 0.3303566 -0.489459
드 0.15524735 0.18507308 -0.2864972 0.22199577 0.22172122 0.45849803 0.07334555 0.76398546 -0.09597961 0.016348695 -0.57582337 -0.25323793 0.00089911034 0.19078457 0.3293937 0.079689935
도대체 0.2591078 0.28101072 -0.012214377 -0.6118462 0.38111365 0.15201172 0.024307132 0.38870385 -0.1639552 -0.05639881 -0.44973493 -0.04729315 -0.1502572 -0.32177597 0.19597365 -0.0027260517
어야 0.040508308 -0.17475185 0.26517045 0.1901858 0.47161815 0.4410639 0.44817308 0.09950704 -0.20282176 0.37694442 -0.05113563 -0.07804916 0.010818429 0.19645736 0.3125546 -0.41384748
답답 0.42684808 0.30375138 -0.015931673 -0.7419093 0.41626215 0.33667538 0.41133174 0.8007831 -0.15892023 0.30209106 -0.49508867 -0.29974416 0.08395734 -0.098211125 0.22410804 -0.38498017
마다 0.5661997 0.0454799 -0.022593739 0.21325365 -0.12921332 -0.3989954 -0.051324222 0.26926073 -0.36686817 0.10884379 0.15281281 -0.1277059 -0.38390312 -0.05888209 0.53876364 -0.04989935
준다 -1.1687356 0.36126924 -0.5528027 -0.18376532 0.18096955 0.701034 0.5136188 -0.40931875 0.45362726 0.33625573 -0.5031082 0.13255206 -0.2782118 0.35346517 0.26857302 -0.13849768
놈 0.6414671 -0.30299777 0.14532411 -0.015001992 -0.19092102 -0.39092544 -0.12883778 -0.119713835 -0.13201016 0.22080936 0.3369288 0.18168569 -0.3163602 -0.30159637 0.11985595 -0.18599671
글 0.26244187 0.22722737 0.08202858 -0.15321767 0.07879048 0.105159275 0.21643525 -0.04852837 -0.19429795 -0.07387624 0.10362054 -0.07677932 0.23148559 0.0707261 0.10130081 -0.19021982
전쟁 0.0594421 -0.034310978 0.65081 0.061806798 -0.065090984 -0.12045492 -0.48365593 -0.3999369 -0.30600095 0.22973835 0.007838929 -0.45576528 0.3250428 -0.36194146 -0.26224312 -0.26876584
수작 0.32763323 0.31411475 -1.1467977 0.48518956 -0.65623254 0.22681734 -0.18839109 -0.8007705 0.5102787 -0.5246233 0.7699558 0.8966374 -1.1910195 1.099953 -0.746447 0.44417447
설정 0.31134805 0.24918877 0.36396152 0.75273097 0.3406262 0.19156198 0.27855748 -0.07522441 -0.37397 -0.07692237 -0.13886794 0.1921748 -0.633124 0.17668483 -0.16513033 0.1377133
무엇 -0.24642445 0.42485234 -0.70511836 0.28979468 0.09455525 0.017213611 -0.10858849 -0.3764622 0.5608709 -0.5757423 0.10663516 0.4327539 0.50813806 0.25667682 -0.009902959 0.3732649
흥미 0.33467314 0.062067293 0.28330752 -0.11660823 -0.009515124 -0.046172306 0.21288477 -0.06508014 -0.5122151 -0.10099868 0.4993702 0.2092456 -0.72512853 0.043524332 0.021686168 -0.3541674
그저 -0.036784265 0.3981334 0.19325727 -0.2786388 0.16049492 0.32317472 0.27896565 0.110074244 -0.41994074 0.11513148 0.09585927 -0.4862196 -0.02561312 -0.038122036 0.33202162 -0.25737122
만화 -0.043272164 -0.11999294 0.18437132 -0.1747934 0.075601205 -0.38134438 0.57339036 0.46198153 0.18304044 0.2137217 -0.38432875 0.049076222 0.40607944 0.12036094 0.2170481 -0.18877824
감정 0.0313132 -0.013280981 -0.28912848 0.17078495 0.022826415 -0.6224214 0.10773207 -0.18934363 -0.07809887 -0.17360386 0.2945656 0.79174495 -0.39490002 0.27939913 -0.5211267 0.21487692
미국 0.261174 0.046998393 0.45689282 -0.5829524 -0.011384172 0.08604392 -0.13085139 -0.15050158 -0.17549907 -0.112558514 0.10198566 -0.3475432 0.4944373 -0.39221004 -0.49323162 0.18475457
행복 0.06254853 -0.743998 -1.2813523 0.0035406975 -0.26952514 -0.34877634 -0.28501064 -0.19195807 0.43749073 -0.4747575 -0.0012119494 0.66950774 -0.19511677 1.158989 -0.72987413 0.7973372
신선 -0.3329897 -0.27036378 -0.31575987 0.51286703 -0.5348368 -0.3249317 0.12654598 -0.17022596 0.39283 -0.053464066 0.27406922 0.22819647 -0.082257494 0.4984554 -0.20359221 0.58185095
뻔 -0.35597754 0.35100672 0.37203863 -0.17512883 -0.17157303 0.012993358 0.08559027 0.27635062 -0.6139291 -0.085412756 -0.07472635 -0.7244032 0.1958869 -0.2984121 0.33396643 0.019926986
군 -0.017401459 -0.46403173 0.07726841 -0.62887365 -0.4592177 0.29290086 0.14373204 0.17437264 -0.0305901 -0.12000827 0.13259071 -0.33983576 0.40402725 -0.3837637 0.20633134 -0.1181218
허접 0.3442685 0.4692155 0.39985824 -0.30393174 0.5043542 0.7358868 0.76688355 0.51465297 -0.6617019 0.3137758 -0.20327203 -0.49709573 -0.67094845 -0.2284968 0.64306504 -0.7924224
형 0.3551416 -0.18047516 -0.7372477 0.16235699 -0.23728923 0.24532956 0.13773471 0.40977225 -0.12193762 -0.46179327 -0.14942378 0.20185545 -0.3000585 0.40148786 -0.37269658 0.6288832
앞 0.1190364 0.13251384 -0.045641012 -0.07501603 -0.36906618 -0.29810604 -0.21661113 0.041207727 -0.5870349 -0.22240946 0.2067635 -0.1252929 -0.3043456 0.7078692 -0.42279297 0.29832006
어도 0.06261016 0.22364105 0.08579802 0.21021463 0.016416486 -0.13684121 -0.067203306 0.29109263 -0.3595216 -0.123894736 0.0027578378 -0.14058954 -0.23384646 0.29558092 -0.028429152 0.17068121
관객 0.21015295 0.20662391 0.3492289 -0.0052291285 0.421762 0.18313335 0.30232742 0.15015668 -0.05942099 0.21961862 -0.2134869 -0.24099988 0.065629944 -0.17277335 0.25897664 -0.18715775
배경 0.23649919 0.18471958 -0.08713792 -0.2355545 -0.70350707 -0.22459319 -0.1270103 0.17526437 -0.36838135 -0.2066987 -0.04606849 -0.3286391 0.0050731027 -0.05425828 -0.0021996868 0.35730127
시절 -0.04516439 -0.31578735 -0.254596 0.6341721 -0.25136518 0.31301054 -0.12073851 -0.20318918 0.21226467 0.077056035 0.5723838 -0.018353188 -0.11992662 0.2677699 0.13307253 0.0064732945
6 0.45778093 -0.10688259 0.18044989 0.03923714 -0.09937528 -0.18916014 -0.59575003 -0.09060495 -0.35904673 -0.3039778 0.21530317 -0.13436727 0.03510246 -0.16206335 -0.26907507 -0.26836026
초반 -0.032080986 0.24691959 0.26851952 -0.6840648 -0.008793194 0.18750955 0.19809975 -0.08444231 -0.110802464 0.4895771 -0.08060989 -0.35356385 0.30604315 -0.102604866 -0.005786079 -0.31966037
사실 -0.26363334 -0.4134292 -0.014873279 0.27337688 -0.33548936 0.35744685 -0.13331294 -0.048253424 0.0008024294 -0.3841243 0.5210697 0.114775196 -0.17139259 0.5068668 -0.07441267 0.26188228
웃음 -0.11452709 -0.22034523 0.084647134 -0.20411418 -0.32622838 0.13639848 -0.10605336 0.23958313 -0.7435713 -0.3179702 0.21221012 -0.5190336 -0.5399882 0.32423845 0.041690823 0.2496768
OOO 0.38523293 0.2350654 0.52686226 -0.6220392 0.52689195 -0.3002648 0.38424128 0.6960593 -0.3573923 0.6389001 -0.47725916 -0.49901798 0.028015677 -0.855933 0.52312905 -0.08190743
엄청 -0.47159657 -0.19660614 0.25609618 0.48316103 0.16010341 -0.0021226138 0.40133426 0.103866115 -0.16751295 0.09072222 0.18284988 0.16239432 -0.31422067 0.41505253 0.43543953 -0.3425566
답 0.014869544 0.040547635 -0.054188095 0.24811088 0.08867143 0.016745292 0.05501948 0.34594634 -0.29820788 -0.29535702 -0.04605535 -0.08149059 -0.26997685 0.3901371 0.013685931 -0.04230847
더라 -0.5870524 -0.32613838 0.056137867 -0.09638939 0.2827681 -0.041470557 -0.196169 -0.2192524 -0.11139208 0.015228484 0.25915447 -0.05353156 0.37281454 0.03641898 -0.11870689 -0.20632362
추억 -0.16273211 -0.30606398 -0.6947865 0.17674387 0.11260335 -0.40772226 -0.1710021 -0.37527898 0.09057387 -0.07404777 0.33943918 0.6296603 -0.27080086 0.7853199 -0.2554967 0.27661285
라니 0.10835051 -0.4781582 0.24145721 0.17208889 -0.33490825 -0.1999891 -0.37782663 -0.13816771 0.09018767 0.26676205 0.5774483 -0.2817266 -0.1755103 -0.3385416 0.23485012 0.30737534
질 0.5569607 0.17965001 0.36162567 -0.29026985 0.38945115 0.06239888 0.22057405 0.43190926 -0.22966951 0.31293544 -0.23990166 -0.0995442 -0.1935457 -0.049348522 0.15404879 -0.724392
자신 0.31535554 0.5154341 -0.075505465 0.074414134 0.2662353 0.058681633 -0.13523114 0.0232383 0.14119029 -0.21208076 -0.27086005 -0.2347852 0.44250405 -0.55381817 0.009668371 0.1839428
캐스팅 0.3759566 0.098555565 0.12845764 -0.0115173105 0.3104947 -0.013622197 0.47318187 0.20840338 -0.106238924 0.10470562 -0.18274623 0.035763767 0.11260851 0.18938276 -0.19535139 -0.34547454
류 -0.16185932 -0.11358206 0.0956333 -0.06623915 0.10662531 0.5122566 0.3993343 0.41814896 0.050143443 0.35693437 -0.0667896 0.23512638 -0.124750406 0.44786337 0.39441085 -0.17766926
첨 -0.22684559 -0.14418112 0.032000925 -0.21341702 0.0054586558 -0.07732726 0.13583773 0.12040408 -0.044244144 0.2778768 0.1434584 -0.037104297 0.43975174 0.018878104 0.30163813 -0.6659234
멋있 0.19297986 -0.07479141 -0.61194503 0.6353547 -0.23202874 -0.472731 0.08119579 -0.26065463 0.8446185 -0.34842694 0.01317986 0.8352605 -0.40000057 0.47187987 -0.53214085 0.716583
어색 -0.10528732 0.38047412 0.93958014 -0.89065593 0.6378857 0.59227073 0.3586655 0.20809728 -0.383985 0.64530885 -0.24534976 -0.24817856 -0.4435801 -0.39370185 0.31691977 -0.5001819
시나리오 0.32230544 -0.06725931 0.5026526 -0.05186961 0.44585943 0.12584393 0.4856836 0.3004181 -0.50895244 0.41647717 -0.38534737 0.21686609 -0.5801603 0.27551258 -0.38309982 -0.62317866
슬프 -0.072910175 -0.17484911 -0.46132442 0.13412803 -0.55930555 -0.51661414 -0.9506346 -0.5046648 0.14382246 -0.4006128 0.14195035 -0.08830253 -0.12590647 0.27589953 -0.3682865 0.5261335
머 0.15470746 0.3172533 0.5474832 -0.34437296 0.30844954 -0.16627868 0.2308331 0.454952 -0.3201655 0.35830846 -0.34683642 -0.2255252 -0.22657175 -0.02958567 0.17256579 -0.65831846
소름 -0.05228499 -0.0688876 -0.45685202 0.2651946 -0.36030456 0.016134283 -0.6222481 -0.34078637 -0.04540246 -0.62220544 0.691297 0.07406564 -0.18231253 0.34418806 -0.5496128 0.40398878
밖에 0.16049206 -0.3383194 0.010970135 0.59868646 0.35873863 -0.20379798 0.22274117 -0.18394823 0.048745625 -0.267433 0.15126407 0.5155895 0.29303238 -0.028596053 -0.044537555 -0.15477726
정신 0.21819147 0.21176787 0.117372125 -0.46872807 -0.040674534 0.16117401 0.273463 0.8326624 0.07025879 0.25358948 -0.6060953 -0.10684894 -0.42984444 0.100205176 0.13274078 0.2051019
분위기 0.17270209 -0.5011668 -0.15951595 0.5174147 0.024413696 0.3346004 0.24642327 -0.43844447 0.336499 -0.04101268 0.23944198 0.46315414 0.17838623 -0.18722746 -0.12400791 0.06326251
멋진 0.031216873 -0.28559294 -0.21043272 0.26379722 -0.29335573 -0.66106033 -0.38609385 -0.035290033 0.15893008 -0.566459 0.06769789 0.24422579 -0.12674953 0.46568736 -0.51719576 0.7427553
힘들 -0.015238014 0.3000603 0.3785098 -0.79379123 0.18270853 0.6896071 0.041872263 -0.1196453 -0.16061121 -0.026062783 0.10930355 -0.42169744 0.3922484 -0.57926655 0.071114525 -0.22551371
오늘 0.24836962 -0.38001794 -0.26140282 -0.26094607 -0.05697012 -0.22452945 -0.3071061 0.17924187 0.08282208 -0.33688596 0.059297055 0.15675081 0.34226805 0.16065323 -0.39096645 -0.09301011
졸작 0.5054104 0.88693964 1.0602729 -0.6682015 1.2807223 0.8469293 0.4683818 0.4585011 -0.848517 0.8543378 -0.5514708 -0.59282 -0.9850639 -0.711663 0.26744008 -0.7887292
어이없 0.291797 0.632705 0.37255558 -0.46787205 0.1664425 0.5640236 0.33490926 0.48668173 -0.65331024 0.28136486 -0.3288824 -0.60547334 -0.59482116 0.10531336 0.17983104 0.039882414
잡 0.07419162 0.28757134 0.064646706 -0.06300067 0.234991 0.15806766 0.20994113 0.016744083 -0.23980086 0.25702277 -0.020963553 0.05002743 0.18234946 -0.01641135 0.018350337 -0.17433468
봐서 0.07412948 0.012755489 -0.08090522 -0.110161126 -0.14843608 0.37005192 0.07603879 0.0039546974 -0.11180334 0.0267771 0.2335249 -0.19218875 -0.15904944 -0.046458006 0.025247825 0.07904981
킬링 0.124261476 -0.5421831 0.2612431 0.4389168 -0.1666883 -0.12299105 -0.012859659 0.11306874 -0.10144397 -0.0812832 0.25374934 0.12388241 0.09361946 -0.11409025 0.07797909 0.18100986
위해 0.2795507 -0.36587915 0.47337443 -0.5437173 0.013228269 -0.05762545 0.16873474 0.10012794 -0.49542916 0.1053835 0.2445498 0.2303376 -0.20967807 0.06306593 -0.45055726 -0.29268378
문제 0.090606004 0.16095646 0.5851749 -0.0026182411 0.13884328 0.0010531833 0.23982343 -0.3771792 -0.5705528 0.44681442 0.2816323 -0.35979262 -0.044203892 0.029003134 0.38348207 -0.520579
구성 0.0574583 -0.33314046 -0.43884376 0.1920474 -0.31691042 -0.2771235 0.0058030244 0.1172228 0.1766568 -0.4520939 -0.042943463 0.04727744 0.26264426 -0.26989287 -0.021462709 -0.10594592
엄마 -0.33337045 -0.013905387 0.07876066 -0.16984536 -0.1280964 -0.4387728 0.18580787 -0.25253358 0.10739708 0.19127 0.14992876 0.20856883 0.22547501 0.040703915 -0.2882197 -0.31775823
함께 0.19216126 -0.03623755 -0.25676823 0.23388419 -0.105854996 0.0033047781 -0.048598453 -0.5113178 -0.12898546 -0.020627448 0.48887986 0.03723176 -0.41614267 0.12576891 -0.41987458 0.1323455
이딴 -0.030100858 0.42424583 1.064909 -0.5370891 0.094473325 0.6753697 1.0814036 0.7292421 -0.65730774 1.1702348 -0.6774356 -0.8389173 -0.44975355 0.22069664 0.63675505 -1.3865067
잊 -0.46091607 -0.27883354 -0.18268342 -0.25301278 0.25374153 -0.3508347 -1.2665689 -0.44598982 0.66759884 0.09273166 -0.094613716 0.18646686 0.1969788 0.07000097 -0.3132815 0.18147118
등 -0.37879372 -0.53524774 0.008788487 0.4084418 -0.46277216 -0.10784098 -0.043871887 -0.26784655 0.01308295 -0.51583457 0.5111964 0.08573952 -0.35242444 0.44690162 -0.33108482 0.43470415
집 0.467614 -0.20429392 -0.21713369 -0.19145598 -0.26547334 -0.22669497 -0.33419576 0.48568976 -0.28228533 0.007929852 -0.05363466 -0.2007846 0.068990715 0.1344088 0.0011217601 0.03154403
유쾌 0.07530726 0.4085053 0.082835704 0.1586508 -0.5948917 -0.6031304 -0.09582227 -0.35224298 -0.7264088 -0.5268219 0.5792203 -0.012844494 -0.50736445 0.54953563 -0.5756363 -0.048023317
뻔한 -0.116701 0.2767247 0.040940683 -0.27103204 0.3614441 0.58991754 0.10064931 -0.021760836 -0.050260358 0.37410435 -0.36423346 -0.82660156 0.1356339 -0.5890618 0.35186574 0.10465287
스러운 -0.1947347 0.11073546 -0.17494313 0.0788896 0.013456749 -0.1157526 0.024484327 0.1546127 -0.12944824 -0.28357965 0.08078164 0.1595836 0.13201581 0.41526657 0.052694745 -0.016455743
결국 0.31250596 0.37933567 0.035267122 -0.18673472 0.30967772 -0.039966363 -0.0900169 0.24223347 -0.47007304 -0.2301343 -0.11990523 -0.030576559 0.069240175 0.0063947625 0.075671956 -0.5920794
낫 0.782253 -0.5163707 0.19810103 -0.18395717 -0.48971742 -0.440468 0.15881167 0.18901649 -0.016445631 0.2981677 0.038398597 0.02928969 -0.26657677 -0.0014099735 0.16384986 0.026878629
뭘 0.53413445 -0.15710221 0.40226984 -0.67222095 0.02649878 0.29335836 -0.106355384 0.19419308 -0.5023724 0.34582818 -0.11268873 -0.08958917 0.12101529 -0.17328516 -0.25280395 -0.25504822
어떤 0.13232578 0.07422713 -0.088087834 -0.65457857 0.001478214 -0.7105227 -0.3703262 0.38330966 0.12079223 -0.09008933 -0.113000795 -0.12739517 0.3021306 -0.17264368 -0.23990451 -0.3920687
한데 0.35849804 -0.14572856 0.10330012 0.3610101 0.17207359 0.296357 0.40512353 0.14555287 0.13922532 -0.10997325 0.15521091 0.29199818 -0.19055718 -0.14970538 0.027372465 -0.118231826
나요 -0.6983728 0.5842543 0.064881 0.11046362 0.07578573 -0.026941635 -0.28871703 -0.6313918 0.70553017 -0.19600661 -0.15910041 0.06802784 0.43728343 -0.21330461 -0.09947738 -0.34491938
소리 0.37288246 0.4526115 0.015719054 -0.15385614 0.11811396 -0.111980036 0.22606306 0.3017051 -0.37746653 0.047772158 -0.08237614 -0.24602413 0.058798015 -0.11953929 0.048860814 -0.21779764
간 -0.043711048 -0.28118157 -0.20069352 0.12620601 0.15203899 0.0036962142 0.09315911 -0.073567115 -0.2918777 -0.055362616 0.28405035 0.30310082 -0.27458268 0.44248775 0.026096981 -0.37236965
역사 0.27971494 -0.23948345 -0.25319365 -0.02474102 -0.24518752 -0.16543804 -0.15112542 -0.06598 -0.21771923 -0.12454068 0.47020876 0.052731425 -0.049768955 0.40515497 0.011601047 -0.42996517
20 0.35821033 -0.34608355 -0.5835446 -0.1609305 -0.3901512 -0.49918795 -0.5417754 0.23108263 0.32512057 -0.23140022 -0.1667639 0.19801776 0.06688321 0.111927025 -0.40066767 0.2587298
뭔 0.22548448 0.6383622 0.18080479 -0.13575865 0.059911314 0.10229987 0.20058326 0.39179862 -0.3937063 0.009499376 -0.4016155 -0.62783986 0.114121996 0.10978544 0.19285838 -0.18088676
제발 0.22432551 -0.098334864 0.7765791 -0.10038655 0.32884568 -0.016181303 -0.026141385 -0.2754106 -0.09059058 0.28430983 -0.2476403 0.05789005 0.14303283 -0.23039694 -0.065962695 -0.37881255
포스터 -0.055483785 0.20823261 -0.11070275 -0.36023408 0.31645814 -0.041321073 -0.03239422 0.20163226 0.5993018 0.37027732 -0.60426486 -0.12829909 0.48931518 0.026381722 0.19696717 0.057264347
아무리 -0.10819301 0.16620965 0.12014719 -0.59872144 0.09867619 0.6594393 0.041651294 0.10027053 0.14434153 0.45070425 -0.3156217 -0.0032186334 0.025788615 0.027770756 0.03277002 0.22037661
코믹 -0.14699574 -0.02843411 0.07686277 0.3701921 0.0607679 -0.26727173 -0.12207432 -0.21928883 0.43032107 -0.04831761 0.46696058 -0.026151184 0.5804393 0.18521516 0.26035246 -0.5371739
!!! -0.6035927 0.4406226 -0.2752688 0.25605845 0.10242757 0.57623756 0.028409682 0.11697949 0.1613068 -0.20010275 -0.24000823 0.16367221 -0.14333154 0.38530612 0.22888926 0.19901344
완벽 0.058137026 -0.26134866 -0.8255141 0.60968554 -0.929737 -0.97443426 -0.8501141 -0.504208 0.79761535 -0.5548638 0.6646375 0.19101225 -0.6126722 0.1796216 -0.20444116 0.3557284
~~~ -0.41718763 -0.57541996 0.09073122 -0.28088322 -0.40509945 0.23512173 0.45538384 0.20229186 -0.17984626 0.40854323 -0.28061268 -0.055547856 0.3355276 0.3905794 -0.13006274 -0.21756762
애니메이션 0.021599613 0.0099525405 -0.5713659 0.06229491 0.16713797 0.26253197 -0.21569219 0.32617888 0.09980943 0.12033693 -0.08961796 0.12321618 -0.06979189 0.28314126 0.3294776 0.21785635
맘 0.4786724 -0.28525764 -0.470394 0.18099791 -0.28911418 -0.12231508 -0.076144286 0.15412107 -0.21573995 -0.2293474 0.6862535 0.28870094 -0.7509522 0.88243955 0.057088375 0.24134062
얼마나 0.12455537 -0.06704957 -0.5467519 -0.21285495 0.20236799 0.050800007 -0.07599961 0.32658532 0.09413965 -0.18432954 -0.13412708 0.48488757 -0.28396818 0.62769085 -0.00034158892 0.1876259
난다 0.2319403 0.021503376 -0.081408836 -0.16834462 0.37544522 0.43339938 0.4865151 0.64253056 0.027737815 0.42141703 -0.6854563 -0.13166688 0.31944656 -0.02087485 0.33340734 -0.28319985
러 -0.15059084 0.33369654 0.30524126 0.11449429 0.37901446 -0.18400306 -0.08493947 0.25831884 -0.026189543 0.037530653 -0.370579 0.022588393 0.21623461 -0.26416147 -0.008257101 0.1404222
주연 -0.14778386 0.11370458 -0.053807106 -0.20986527 0.12451525 0.058822617 0.05811082 0.37128457 -0.13829905 0.2121615 -0.26612708 0.07990098 -0.09390342 0.70242906 0.101953276 -0.038343087
원 0.10264399 -0.22387931 0.5555135 0.024938334 0.23861852 -0.18141973 0.0762162 -0.21986079 0.07243097 0.5328298 -0.2575739 0.12985095 0.13799219 -0.114161626 -0.61912477 -0.01592672
♥ 0.3498638 0.92693377 -1.0627363 0.55502737 -0.70017725 0.26647317 -0.14991818 -0.78076565 0.60387117 -1.0431864 0.70528257 1.1489168 -0.92032707 0.57945955 -0.8478485 0.7048364
버리 -0.39501372 0.051730793 0.12597418 -0.67739767 0.03539593 0.17779051 0.20100541 -0.10362745 -0.06509998 0.17819074 -0.14644378 -0.58412665 0.5283124 -0.19751158 0.36881006 -0.32133123
어릴 -0.22895579 0.164437 -0.35984647 -0.035448946 -0.20683463 0.26992786 0.10305773 -0.24727446 -0.28441486 -0.39805996 0.20264679 0.02988202 0.12910894 0.7299055 -0.26646918 -0.2883473
후회 0.13846485 -0.25098723 0.77233297 -0.59142894 -0.39183033 -0.31469882 -0.76752317 -0.52228075 0.033953186 0.34047863 -0.45755675 -0.5790834 0.46822837 -0.78178334 -0.38304386 -0.06806658
진부 -0.019327369 0.29698077 -0.040602528 -1.1077052 0.51712483 0.41529855 0.21394648 0.07222752 -0.475342 0.8197423 -0.008769329 -0.5187395 -0.25049794 -0.53498447 0.78264457 -0.6848071
나올 -0.38802427 0.19702253 -0.30248636 -0.13511421 0.0700099 0.024115343 -0.04109974 0.28729528 0.18924907 0.26486748 -0.45071402 -0.14533678 -0.1943044 0.46695796 -0.039212093 0.16765587
됐 -0.54278255 0.58276933 -0.23587863 0.16755523 0.067868106 -0.3951477 -0.20297158 -0.2835464 0.5068252 -0.19453748 -0.06826883 0.06361902 0.15822053 -0.118907906 -0.05431577 -0.17673151
